<?xml version="1.0"?>
<opencv_storage>
<cascade>
  <stageType>BOOST</stageType>
  <featureType>LBP</featureType>
  <height>20</height>
  <width>20</width>
  <stageParams>
    <boostType>GAB</boostType>
    <minHitRate>9.9800002574920654e-01</minHitRate>
    <maxFalseAlarm>2.0000000298023224e-01</maxFalseAlarm>
    <weightTrimRate>9.4999999999999996e-01</weightTrimRate>
    <maxDepth>1</maxDepth>
    <maxWeakCount>100</maxWeakCount></stageParams>
  <featureParams>
    <maxCatCount>256</maxCatCount>
    <featSize>1</featSize></featureParams>
  <stageNum>11</stageNum>
  <stages>
    <!-- stage 0 -->
    <_>
      <maxWeakCount>4</maxWeakCount>
      <stageThreshold>-3.8302984833717346e-01</stageThreshold>
      <weakClassifiers>
        <_>
          <internalNodes>
            0 -1 11 -81789473 -143138465 298931511 -711519393
            -1247239957 -1149140853 -1999942689 68156319</internalNodes>
          <leafValues>
            -8.9147287607192993e-01 7.7486509084701538e-01</leafValues></_>
        <_>
          <internalNodes>
            0 -1 10 532258303 390796125 823432671 -2927341 701152687
            1527414799 -1962678305 2013000667</internalNodes>
          <leafValues>
            -8.6649483442306519e-01 7.4516773223876953e-01</leafValues></_>
        <_>
          <internalNodes>
            0 -1 6 680522743 -137916009 -2125868717 -136854817 52658591
            1363929103 17244663 2012472255</internalNodes>
          <leafValues>
            -9.0868395566940308e-01 6.8331444263458252e-01</leafValues></_>
        <_>
          <internalNodes>
            0 -1 7 -639896838 18044146 1082747907 -584330605 1082196138
            134971626 -917516289 1946155455</internalNodes>
          <leafValues>
            -8.5877084732055664e-01 6.9162344932556152e-01</leafValues></_></weakClassifiers></_>
    <!-- stage 1 -->
    <_>
      <maxWeakCount>4</maxWeakCount>
      <stageThreshold>-3.6728376150131226e-01</stageThreshold>
      <weakClassifiers>
        <_>
          <internalNodes>
            0 -1 8 -136314881 -805289853 1628553475 -662450043
            1615548959 536870934 1099621347 -181148997</internalNodes>
          <leafValues>
            -8.3638322353363037e-01 7.6868605613708496e-01</leafValues></_>
        <_>
          <internalNodes>
            0 -1 49 -375399465 1103831046 -788171495 -576733071
            -114570305 83921217 -920417889 -838874935</internalNodes>
          <leafValues>
            -7.7232354879379272e-01 7.0787352323532104e-01</leafValues></_>
        <_>
          <internalNodes>
            0 -1 18 -1047537413 -207945469 -939472651 -649000935
            -240353029 -1949613943 -2105365765 -1790702683</internalNodes>
          <leafValues>
            -7.5100803375244141e-01 6.8836545944213867e-01</leafValues></_>
        <_>
          <internalNodes>
            0 -1 51 -207621896 -140642864 285593875 2134889243
            1183531502 973086977 1378570607 1448080339</internalNodes>
          <leafValues>
            -8.9699387550354004e-01 5.5305749177932739e-01</leafValues></_></weakClassifiers></_>
    <!-- stage 2 -->
    <_>
      <maxWeakCount>4</maxWeakCount>
      <stageThreshold>-4.1760763525962830e-01</stageThreshold>
      <weakClassifiers>
        <_>
          <internalNodes>
            0 -1 5 -185540609 -148960097 -810299309 -577297457
            -242160641 -120405829 -519530321 2145602559</internalNodes>
          <leafValues>
            -8.1264108419418335e-01 7.0015221834182739e-01</leafValues></_>
        <_>
          <internalNodes>
            0 -1 41 433790975 529736095 -740763137 530399419 949623807
            -7731157 193719039 1002060255</internalNodes>
          <leafValues>
            -9.0888130664825439e-01 5.8880251646041870e-01</leafValues></_>
        <_>
          <internalNodes>
            0 -1 16 -486610945 -3098145 1502990685 -45554757 1144056655
            813402139 -875828993 -264051953</internalNodes>
          <leafValues>
            -8.4667706489562988e-01 5.7991021871566772e-01</leafValues></_>
        <_>
          <internalNodes>
            0 -1 27 -721111681 -1690725807 320608663 -577175279
            -1442489190 -1155946360 -2013034337 -2136687890</internalNodes>
          <leafValues>
            -7.3307710886001587e-01 7.2400456666946411e-01</leafValues></_></weakClassifiers></_>
    <!-- stage 3 -->
    <_>
      <maxWeakCount>5</maxWeakCount>
      <stageThreshold>2.9016356915235519e-02</stageThreshold>
      <weakClassifiers>
        <_>
          <internalNodes>
            0 -1 2 -218630145 -191707158 1891889627 -76811641 4473863
            1279265295 -263130379 -35655729</internalNodes>
          <leafValues>
            -7.3504275083541870e-01 7.0253163576126099e-01</leafValues></_>
        <_>
          <internalNodes>
            0 -1 50 -524460 -683177833 -2129461220 -4982343 -791938064
            295930250 -661669124 -839126848</internalNodes>
          <leafValues>
            -8.4821176528930664e-01 5.5114740133285522e-01</leafValues></_>
        <_>
          <internalNodes>
            0 -1 57 -203425825 130531471 1368969423 -254424894
            1346888465 1090584576 -267406897 -506462805</internalNodes>
          <leafValues>
            -7.5018805265426636e-01 6.0768282413482666e-01</leafValues></_>
        <_>
          <internalNodes>
            0 -1 26 -614731777 -613215523 -922650273 2108672411
            -918316033 -117714760 1057225407 537340751</internalNodes>
          <leafValues>
            -9.4184249639511108e-01 4.5582729578018188e-01</leafValues></_>
        <_>
          <internalNodes>
            0 -1 31 -570610802 -2194553 50639034 -548872050 416786911
            -113139701 -2000176977 -24382782</internalNodes>
          <leafValues>
            -8.3209389448165894e-01 5.4876077175140381e-01</leafValues></_></weakClassifiers></_>
    <!-- stage 4 -->
    <_>
      <maxWeakCount>7</maxWeakCount>
      <stageThreshold>-1.3640445470809937e+00</stageThreshold>
      <weakClassifiers>
        <_>
          <internalNodes>
            0 -1 4 -267403265 -543182641 419866975 -12576801 268529698
            -351956465 -1316642373 -147789969</internalNodes>
          <leafValues>
            -8.4293192625045776e-01 5.8774375915527344e-01</leafValues></_>
        <_>
          <internalNodes>
            0 -1 52 -34613277 685419139 1397863961 1905755095 -911502897
            1290903594 -125332344 -977282865</internalNodes>
          <leafValues>
            -7.3755741119384766e-01 5.7051092386245728e-01</leafValues></_>
        <_>
          <internalNodes>
            0 -1 28 -33838338 -1267625826 1477499344 -149458632
            -1656216124 -581434953 -888619298 -1066033</internalNodes>
          <leafValues>
            -6.9781273603439331e-01 5.9445691108703613e-01</leafValues></_>
        <_>
          <internalNodes>
            0 -1 17 -716058537 1497487363 -1056730723 2109800723
            403245279 765247622 1048610955 598468763</internalNodes>
          <leafValues>
            -8.5035967826843262e-01 5.1272094249725342e-01</leafValues></_>
        <_>
          <internalNodes>
            0 -1 21 -1517293089 -434651049 354517341 -233448255
            -1685857969 407408899 -30948721 -112723445</internalNodes>
          <leafValues>
            -6.7178541421890259e-01 6.0863125324249268e-01</leafValues></_>
        <_>
          <internalNodes>
            0 -1 48 -606129916 1896419679 412415122 1607382558
            -908329744 2006090136 402722988 1456337918</internalNodes>
          <leafValues>
            -9.1089588403701782e-01 4.5042037963867188e-01</leafValues></_>
        <_>
          <internalNodes>
            0 -1 24 -1869491714 1402410065 -1006567396 -227894590
            -1467971281 -1173743864 -91567953 -1438428670</internalNodes>
          <leafValues>
            -7.5452607870101929e-01 5.2274477481842041e-01</leafValues></_></weakClassifiers></_>
    <!-- stage 5 -->
    <_>
      <maxWeakCount>5</maxWeakCount>
      <stageThreshold>-1.8819482624530792e-01</stageThreshold>
      <weakClassifiers>
        <_>
          <internalNodes>
            0 -1 59 467628887 256587019 -770895780 -611329207
            -1393870659 -880229757 -573591083 -842007083</internalNodes>
          <leafValues>
            -7.2140431404113770e-01 6.3553529977798462e-01</leafValues></_>
        <_>
          <internalNodes>
            0 -1 1 -128325121 -70070071 -694579369 -6881227 -41379329
            -1078697794 -1428509697 2012438643</internalNodes>
          <leafValues>
            -8.2551395893096924e-01 5.7018345594406128e-01</leafValues></_>
        <_>
          <internalNodes>
            0 -1 32 -643827713 -6629441 -1291737122 999438778 -66577249
            -342153079 747339946 467085967</internalNodes>
          <leafValues>
            -8.5079157352447510e-01 4.3832376599311829e-01</leafValues></_>
        <_>
          <internalNodes>
            0 -1 56 1952444487 17236807 -803567413 -2133307321
            -381582204 -1926649719 -260013686 -303695441</internalNodes>
          <leafValues>
            -7.8331828117370605e-01 5.1119369268417358e-01</leafValues></_>
        <_>
          <internalNodes>
            0 -1 53 -226557667 1971128591 -2147412833 821653727
            167815732 -1433305088 -1316185281 2127029487</internalNodes>
          <leafValues>
            -8.6139869689941406e-01 4.0920594334602356e-01</leafValues></_></weakClassifiers></_>
    <!-- stage 6 -->
    <_>
      <maxWeakCount>6</maxWeakCount>
      <stageThreshold>-4.1200697422027588e-01</stageThreshold>
      <weakClassifiers>
        <_>
          <internalNodes>
            0 -1 0 -92801057 -346357760 890613701 -9447360 1342263807
            -1952734433 548479461 -4732366</internalNodes>
          <leafValues>
            -6.9300228357315063e-01 6.1948251724243164e-01</leafValues></_>
        <_>
          <internalNodes>
            0 -1 37 -1279607816 -647519983 -182849124 -35992565
            143704031 -67056895 -22942837 -620760743</internalNodes>
          <leafValues>
            -6.8907964229583740e-01 5.5913513898849487e-01</leafValues></_>
        <_>
          <internalNodes>
            0 -1 15 -606380033 486779999 -1047850863 -116932329
            1229671247 1343717384 1116156647 -263848977</internalNodes>
          <leafValues>
            -7.3594093322753906e-01 5.4633635282516479e-01</leafValues></_>
        <_>
          <internalNodes>
            0 -1 25 -929957505 1024040960 2000749393 466710796
            -1677594409 994871426 -796611877 1003145897</internalNodes>
          <leafValues>
            -8.1173157691955566e-01 5.0139898061752319e-01</leafValues></_>
        <_>
          <internalNodes>
            0 -1 39 -106886883 874447297 -1794829833 -128363373
            -1047228229 -974616344 -889152517 -1198552872</internalNodes>
          <leafValues>
            -6.7385041713714600e-01 5.6090378761291504e-01</leafValues></_>
        <_>
          <internalNodes>
            0 -1 38 -711094849 -1078095939 -536891473 -541159490
            -4198465 -4214849 -4097 -810622978</internalNodes>
          <leafValues>
            -5.7364839315414429e-01 7.0151823759078979e-01</leafValues></_></weakClassifiers></_>
    <!-- stage 7 -->
    <_>
      <maxWeakCount>7</maxWeakCount>
      <stageThreshold>-1.1585247516632080e+00</stageThreshold>
      <weakClassifiers>
        <_>
          <internalNodes>
            0 -1 20 574619647 269522119 -805255845 2101511122 144439983
            -1329463096 1508559515 2020997631</internalNodes>
          <leafValues>
            -7.5826972723007202e-01 5.6294202804565430e-01</leafValues></_>
        <_>
          <internalNodes>
            0 -1 61 -209718433 -312115062 -786886253 -671903009
            2032990769 1787265674 -1366691643 -846471003</internalNodes>
          <leafValues>
            -6.8966066837310791e-01 5.5579602718353271e-01</leafValues></_>
        <_>
          <internalNodes>
            0 -1 43 -840981977 -48905924 -872215235 -539024486
            -1232932610 -33521460 1233996584 -69222214</internalNodes>
          <leafValues>
            -6.2942034006118774e-01 6.0178428888320923e-01</leafValues></_>
        <_>
          <internalNodes>
            0 -1 34 -653289121 835191704 -780135585 2097746333
            -494755701 -1682094071 -813528931 -1457213815</internalNodes>
          <leafValues>
            -6.5285390615463257e-01 6.1873000860214233e-01</leafValues></_>
        <_>
          <internalNodes>
            0 -1 33 -1761360546 957415808 -1795043198 -1726544744
            269236873 -610203510 -816280918 -935169837</internalNodes>
          <leafValues>
            -6.8409425020217896e-01 5.5492115020751953e-01</leafValues></_>
        <_>
          <internalNodes>
            0 -1 9 -211823697 -150529909 25232723 -177795062 1342962973
            -519927767 1091471523 -257437973</internalNodes>
          <leafValues>
            -7.1499037742614746e-01 5.5853915214538574e-01</leafValues></_>
        <_>
          <internalNodes>
            0 -1 55 -81830305 1394688202 16724 973587203 -367427431
            528547840 1358973129 2061040344</internalNodes>
          <leafValues>
            -8.2066720724105835e-01 4.3762475252151489e-01</leafValues></_></weakClassifiers></_>
    <!-- stage 8 -->
    <_>
      <maxWeakCount>6</maxWeakCount>
      <stageThreshold>-4.0440917015075684e-01</stageThreshold>
      <weakClassifiers>
        <_>
          <internalNodes>
            0 -1 44 -41980421 532283263 -318767623 838860477 -184746501
            2113797629 -33694727 -1459753505</internalNodes>
          <leafValues>
            -5.8283430337905884e-01 6.5442401170730591e-01</leafValues></_>
        <_>
          <internalNodes>
            0 -1 58 -69217441 2061226931 406634947 835823755 -1971137792
            -217939961 -74728569 2111665592</internalNodes>
          <leafValues>
            -7.3629283905029297e-01 5.5812168121337891e-01</leafValues></_>
        <_>
          <internalNodes>
            0 -1 14 -207887681 935666627 -2147403662 -779381585
            -1622501093 100666250 -1299995918 -173815077</internalNodes>
          <leafValues>
            -6.1195224523544312e-01 6.1897939443588257e-01</leafValues></_>
        <_>
          <internalNodes>
            0 -1 46 -922052518 -564997563 -788237925 901648655
            -1165992796 -599635029 -100082022 -88161842</internalNodes>
          <leafValues>
            -6.3443028926849365e-01 5.6245994567871094e-01</leafValues></_>
        <_>
          <internalNodes>
            0 -1 42 -572792865 1466402881 -1055711155 940756997
            -1577008864 -587038591 -385683857 614456198</internalNodes>
          <leafValues>
            -7.6318466663360596e-01 5.1453089714050293e-01</leafValues></_>
        <_>
          <internalNodes>
            0 -1 12 50325470 -750097268 -2130100739 -1222832111
            579905666 -335380344 1153606275 -137638773</internalNodes>
          <leafValues>
            -7.1867632865905762e-01 4.9646335840225220e-01</leafValues></_></weakClassifiers></_>
    <!-- stage 9 -->
    <_>
      <maxWeakCount>7</maxWeakCount>
      <stageThreshold>-4.8474040627479553e-01</stageThreshold>
      <weakClassifiers>
        <_>
          <internalNodes>
            0 -1 19 -1353712645 -1404776053 -1056931565 -44920315
            998881963 -376955759 1105076615 1757604089</internalNodes>
          <leafValues>
            -7.2810459136962891e-01 5.2752614021301270e-01</leafValues></_>
        <_>
          <internalNodes>
            0 -1 22 -761085478 -727838257 -1999498870 -51221286
            -951877589 1644904461 -1633451379 -197670817</internalNodes>
          <leafValues>
            -8.5894858837127686e-01 3.9855235815048218e-01</leafValues></_>
        <_>
          <internalNodes>
            0 -1 35 -1735009897 -115887851 675878399 -1075889901
            -1341407212 -1126446941 -1709197060 749399738</internalNodes>
          <leafValues>
            -6.8849831819534302e-01 4.9534761905670166e-01</leafValues></_>
        <_>
          <internalNodes>
            0 -1 29 -1495599714 -1286158297 1079067705 298836739
            805477083 -251002847 537108879 423878879</internalNodes>
          <leafValues>
            -8.9328759908676147e-01 3.9009049534797668e-01</leafValues></_>
        <_>
          <internalNodes>
            0 -1 13 1963935659 -783958001 98450 -2127724319 1883752519
            -889069525 2093064832 -578299676</internalNodes>
          <leafValues>
            -6.8563449382781982e-01 5.0235015153884888e-01</leafValues></_>
        <_>
          <internalNodes>
            0 -1 23 -500969320 -196673402 1207959695 -322830335
            -876034040 1082859528 -939359574 -230252405</internalNodes>
          <leafValues>
            -6.9243228435516357e-01 4.8035579919815063e-01</leafValues></_>
        <_>
          <internalNodes>
            0 -1 40 -988310757 184877829 -753123106 -548273831
            -520042003 -888667133 1536269755 1222541519</internalNodes>
          <leafValues>
            -7.6736545562744141e-01 4.3470409512519836e-01</leafValues></_></weakClassifiers></_>
    <!-- stage 10 -->
    <_>
      <maxWeakCount>7</maxWeakCount>
      <stageThreshold>-5.1779448986053467e-01</stageThreshold>
      <weakClassifiers>
        <_>
          <internalNodes>
            0 -1 47 890500563 487391505 -855574053 500977869 407160991
            -1085685550 860420318 955130542</internalNodes>
          <leafValues>
            -7.9671150445938110e-01 4.7877204418182373e-01</leafValues></_>
        <_>
          <internalNodes>
            0 -1 60 -3943585 564208335 -1668741031 -718564655
            -2121569502 722083919 -125044431 -842282875</internalNodes>
          <leafValues>
            -7.2230130434036255e-01 4.6253135800361633e-01</leafValues></_>
        <_>
          <internalNodes>
            0 -1 3 -757113353 1862905930 420694211 -644214779 1619218871
            580221066 -2101329449 -3898965</internalNodes>
          <leafValues>
            -6.9044023752212524e-01 5.0269448757171631e-01</leafValues></_>
        <_>
          <internalNodes>
            0 -1 36 -2133523703 923238448 -1929260971 -37633985
            692102292 591561252 671123951 1744822363</internalNodes>
          <leafValues>
            -8.4999924898147583e-01 4.1750544309616089e-01</leafValues></_>
        <_>
          <internalNodes>
            0 -1 54 -381205313 1142179329 -719732709 -121319402
            -259350391 -1054830576 -502672710 -320886437</internalNodes>
          <leafValues>
            -6.4808452129364014e-01 5.1350975036621094e-01</leafValues></_>
        <_>
          <internalNodes>
            0 -1 45 -841178354 1351106690 402796859 -1785083889
            -499107910 -1994915838 17328911 -205610838</internalNodes>
          <leafValues>
            -7.4160909652709961e-01 4.6483826637268066e-01</leafValues></_>
        <_>
          <internalNodes>
            0 -1 30 -490045044 -2030890025 -1861217454 1591484626
            169988283 1638645914 -1147630616 2011138511</internalNodes>
          <leafValues>
            -8.8902753591537476e-01 3.5659456253051758e-01</leafValues></_></weakClassifiers></_></stages>
  <features>
    <_>
      <rect>
        0 2 4 5</rect></_>
    <_>
      <rect>
        1 0 5 3</rect></_>
    <_>
      <rect>
        1 3 3 4</rect></_>
    <_>
      <rect>
        1 3 5 2</rect></_>
    <_>
      <rect>
        1 9 4 3</rect></_>
    <_>
      <rect>
        2 0 4 6</rect></_>
    <_>
      <rect>
        2 2 3 3</rect></_>
    <_>
      <rect>
        3 2 5 6</rect></_>
    <_>
      <rect>
        3 7 2 3</rect></_>
    <_>
      <rect>
        3 8 2 3</rect></_>
    <_>
      <rect>
        3 17 5 1</rect></_>
    <_>
      <rect>
        4 0 5 2</rect></_>
    <_>
      <rect>
        4 2 3 2</rect></_>
    <_>
      <rect>
        4 6 1 3</rect></_>
    <_>
      <rect>
        4 8 1 1</rect></_>
    <_>
      <rect>
        4 8 1 2</rect></_>
    <_>
      <rect>
        4 9 2 3</rect></_>
    <_>
      <rect>
        4 17 4 1</rect></_>
    <_>
      <rect>
        5 0 3 1</rect></_>
    <_>
      <rect>
        5 4 1 2</rect></_>
    <_>
      <rect>
        5 7 1 2</rect></_>
    <_>
      <rect>
        5 12 1 1</rect></_>
    <_>
      <rect>
        5 12 2 2</rect></_>
    <_>
      <rect>
        5 13 1 1</rect></_>
    <_>
      <rect>
        5 15 3 1</rect></_>
    <_>
      <rect>
        5 17 4 1</rect></_>
    <_>
      <rect>
        6 0 3 2</rect></_>
    <_>
      <rect>
        6 0 4 1</rect></_>
    <_>
      <rect>
        6 3 3 2</rect></_>
    <_>
      <rect>
        6 5 1 3</rect></_>
    <_>
      <rect>
        6 5 2 1</rect></_>
    <_>
      <rect>
        6 5 3 4</rect></_>
    <_>
      <rect>
        6 14 2 2</rect></_>
    <_>
      <rect>
        6 15 3 1</rect></_>
    <_>
      <rect>
        7 0 2 1</rect></_>
    <_>
      <rect>
        7 0 4 1</rect></_>
    <_>
      <rect>
        7 2 2 1</rect></_>
    <_>
      <rect>
        7 3 2 2</rect></_>
    <_>
      <rect>
        7 3 2 4</rect></_>
    <_>
      <rect>
        7 5 4 1</rect></_>
    <_>
      <rect>
        7 16 3 1</rect></_>
    <_>
      <rect>
        7 17 2 1</rect></_>
    <_>
      <rect>
        8 0 4 4</rect></_>
    <_>
      <rect>
        8 9 2 2</rect></_>
    <_>
      <rect>
        8 9 4 2</rect></_>
    <_>
      <rect>
        8 10 2 2</rect></_>
    <_>
      <rect>
        8 11 1 1</rect></_>
    <_>
      <rect>
        8 17 2 1</rect></_>
    <_>
      <rect>
        9 6 2 1</rect></_>
    <_>
      <rect>
        9 10 3 3</rect></_>
    <_>
      <rect>
        9 12 2 2</rect></_>
    <_>
      <rect>
        10 4 2 4</rect></_>
    <_>
      <rect>
        10 8 3 3</rect></_>
    <_>
      <rect>
        11 3 1 1</rect></_>
    <_>
      <rect>
        11 4 3 4</rect></_>
    <_>
      <rect>
        12 4 1 2</rect></_>
    <_>
      <rect>
        12 5 2 3</rect></_>
    <_>
      <rect>
        12 7 2 2</rect></_>
    <_>
      <rect>
        12 8 1 1</rect></_>
    <_>
      <rect>
        12 10 1 2</rect></_>
    <_>
      <rect>
        12 12 1 1</rect></_>
    <_>
      <rect>
        12 13 1 1</rect></_></features></cascade>
</opencv_storage>
