<?xml version="1.0"?>
<opencv_storage>
<cascade>
  <stageType>BOOST</stageType>
  <featureType>LBP</featureType>
  <height>16</height>
  <width>16</width>
  <stageParams>
    <boostType>GAB</boostType>
    <minHitRate>9.9800002574920654e-01</minHitRate>
    <maxFalseAlarm>2.0000000298023224e-01</maxFalseAlarm>
    <weightTrimRate>9.4999999999999996e-01</weightTrimRate>
    <maxDepth>1</maxDepth>
    <maxWeakCount>100</maxWeakCount></stageParams>
  <featureParams>
    <maxCatCount>256</maxCatCount>
    <featSize>1</featSize></featureParams>
  <stageNum>15</stageNum>
  <stages>
    <!-- stage 0 -->
    <_>
      <maxWeakCount>6</maxWeakCount>
      <stageThreshold>-6.3496214151382446e-01</stageThreshold>
      <weakClassifiers>
        <_>
          <internalNodes>
            0 -1 65 -35656705 -985464309 -784220009 1564967067
            -1593595729 160145539 269211883 140970671</internalNodes>
          <leafValues>
            -8.2863342761993408e-01 7.5430357456207275e-01</leafValues></_>
        <_>
          <internalNodes>
            0 -1 87 -606141952 2131957079 -631192552 -671353001
            1359282180 1836712211 -526770062 -16780289</internalNodes>
          <leafValues>
            -8.1007379293441772e-01 5.6522607803344727e-01</leafValues></_>
        <_>
          <internalNodes>
            0 -1 25 -73402401 -36187813 1632728349 -684747369 1370069167
            1360019657 -502056469 1911683583</internalNodes>
          <leafValues>
            -7.5152420997619629e-01 5.1966828107833862e-01</leafValues></_>
        <_>
          <internalNodes>
            0 -1 15 -11013238 -580132548 1224839918 -674294988
            1485119656 1529020606 1226408152 1608486363</internalNodes>
          <leafValues>
            -6.8652391433715820e-01 5.6832838058471680e-01</leafValues></_>
        <_>
          <internalNodes>
            0 -1 137 -210 -961089733 -151788000 -1276970126 -671098611
            -816847505 1412846630 -136347657</internalNodes>
          <leafValues>
            -6.0870975255966187e-01 6.6740888357162476e-01</leafValues></_>
        <_>
          <internalNodes>
            0 -1 101 -167817377 1461927955 71651577 1612056861
            1786789982 2013812736 981930635 717935359</internalNodes>
          <leafValues>
            -7.4827510118484497e-01 5.0319176912307739e-01</leafValues></_></weakClassifiers></_>
    <!-- stage 1 -->
    <_>
      <maxWeakCount>8</maxWeakCount>
      <stageThreshold>-7.2004538774490356e-01</stageThreshold>
      <weakClassifiers>
        <_>
          <internalNodes>
            0 -1 66 -614473985 -704821797 -645278625 -741352353
            -880097109 -657782744 -912659317 285198571</internalNodes>
          <leafValues>
            -7.1321696043014526e-01 5.5221742391586304e-01</leafValues></_>
        <_>
          <internalNodes>
            0 -1 73 -1599165948 -1215347811 1342468255 -359634741
            -1475701097 -114783192 -1665615873 -1129786886</internalNodes>
          <leafValues>
            -6.9391208887100220e-01 5.1987057924270630e-01</leafValues></_>
        <_>
          <internalNodes>
            0 -1 110 -544214898 -179577466 -1450770290 252415238
            -720584504 -645332832 -1012350232 -206638661</internalNodes>
          <leafValues>
            -6.3554286956787109e-01 4.9525636434555054e-01</leafValues></_>
        <_>
          <internalNodes>
            0 -1 70 168165906 -778870907 274235419 -107708276 34212587
            -100472811 -922641937 -3207585</internalNodes>
          <leafValues>
            -6.2850981950759888e-01 5.2571046352386475e-01</leafValues></_>
        <_>
          <internalNodes>
            0 -1 72 -141298816 319392258 1064960 926156808 -599206468
            168493186 1108597391 -14958822</internalNodes>
          <leafValues>
            -7.3126107454299927e-01 4.2551481723785400e-01</leafValues></_>
        <_>
          <internalNodes>
            0 -1 27 -263271206 -1068326264 194611264 -1248602110
            -1869698913 1080066190 1946927121 -26783215</internalNodes>
          <leafValues>
            -6.2912672758102417e-01 4.9863970279693604e-01</leafValues></_>
        <_>
          <internalNodes>
            0 -1 104 -188762007 -977058970 -1877966793 -1325359103
            -1061781436 1409689608 -2113752913 -356530090</internalNodes>
          <leafValues>
            -5.7779604196548462e-01 5.5925530195236206e-01</leafValues></_>
        <_>
          <internalNodes>
            0 -1 99 -204474934 -1618898612 -1073135599 300134593
            -1044340530 -1156935488 -1265905976 596567759</internalNodes>
          <leafValues>
            -6.9788122177124023e-01 4.6469372510910034e-01</leafValues></_></weakClassifiers></_>
    <!-- stage 2 -->
    <_>
      <maxWeakCount>8</maxWeakCount>
      <stageThreshold>-7.8141576051712036e-01</stageThreshold>
      <weakClassifiers>
        <_>
          <internalNodes>
            0 -1 22 -12976131 -44197387 -946774073 1398214961 -360646145
            -68771389 -347476049 2069131541</internalNodes>
          <leafValues>
            -6.7414402961730957e-01 5.6984478235244751e-01</leafValues></_>
        <_>
          <internalNodes>
            0 -1 48 -743318533 -581085857 -49545891 -683747 -342308660
            1558711448 -308544004 164550426</internalNodes>
          <leafValues>
            -7.4571937322616577e-01 3.9168357849121094e-01</leafValues></_>
        <_>
          <internalNodes>
            0 -1 82 -169910785 1500971211 862703806 1533271495 -71193282
            2146896878 -1050514774 1359662570</internalNodes>
          <leafValues>
            -6.1322087049484253e-01 4.6954375505447388e-01</leafValues></_>
        <_>
          <internalNodes>
            0 -1 63 1897969780 1534917192 -696143523 -40005133
            -1979140996 679477384 892348868 -24491276</internalNodes>
          <leafValues>
            -6.6552263498306274e-01 4.8729729652404785e-01</leafValues></_>
        <_>
          <internalNodes>
            0 -1 59 203693183 2043543645 738254239 1417951397
            -2137388827 -660167928 -1999979781 -640218942</internalNodes>
          <leafValues>
            -6.0931175947189331e-01 4.8917666077613831e-01</leafValues></_>
        <_>
          <internalNodes>
            0 -1 105 -607936598 -1652436864 721783042 356565754
            -1450776179 -2029133405 -91102307 -74472721</internalNodes>
          <leafValues>
            -6.4667344093322754e-01 4.5695120096206665e-01</leafValues></_>
        <_>
          <internalNodes>
            0 -1 131 1895661955 -78757073 -2143157710 -322070897
            1152909829 -1962728185 -1529558236 -1278878282</internalNodes>
          <leafValues>
            -6.3743376731872559e-01 4.7270205616950989e-01</leafValues></_>
        <_>
          <internalNodes>
            0 -1 51 1427011440 -753778419 406917259 1833296143
            1506471324 1493291146 566181371 535762573</internalNodes>
          <leafValues>
            -7.1374326944351196e-01 4.2189878225326538e-01</leafValues></_></weakClassifiers></_>
    <!-- stage 3 -->
    <_>
      <maxWeakCount>8</maxWeakCount>
      <stageThreshold>-3.6986973881721497e-01</stageThreshold>
      <weakClassifiers>
        <_>
          <internalNodes>
            0 -1 102 -35660449 1733770879 2147449655 57327487 1474053194
            391503743 -2 -1</internalNodes>
          <leafValues>
            -5.1340204477310181e-01 5.6747967004776001e-01</leafValues></_>
        <_>
          <internalNodes>
            0 -1 108 -744538083 -614514671 269078903 1999190073
            -256444280 -83655296 -1475301877 -1172768149</internalNodes>
          <leafValues>
            -4.7051805257797241e-01 5.7782644033432007e-01</leafValues></_>
        <_>
          <internalNodes>
            0 -1 23 -270540801 -80424803 -1685015145 -1660233997
            -1736257285 -263297839 1982752445 1097463289</internalNodes>
          <leafValues>
            -7.5954675674438477e-01 3.8478502631187439e-01</leafValues></_>
        <_>
          <internalNodes>
            0 -1 124 -876350072 1502118024 290522904 487686208
            -754802501 -1433884285 -2111774050 -1689526038</internalNodes>
          <leafValues>
            -5.3257000446319580e-01 5.2913391590118408e-01</leafValues></_>
        <_>
          <internalNodes>
            0 -1 29 2095048395 -578177679 -752824560 -40910718
            1888761767 -489287543 1694757278 1965511107</internalNodes>
          <leafValues>
            -6.7134004831314087e-01 3.9633190631866455e-01</leafValues></_>
        <_>
          <internalNodes>
            0 -1 17 -640764930 -712746948 -845504456 -175078269
            -300829718 -1697841120 1075098584 -551247542</internalNodes>
          <leafValues>
            -5.6462824344635010e-01 5.2045387029647827e-01</leafValues></_>
        <_>
          <internalNodes>
            0 -1 122 1566570118 -141766138 -649979896 -1247899350
            -661804276 172524040 -475740200 1934874082</internalNodes>
          <leafValues>
            -6.2350851297378540e-01 4.8416143655776978e-01</leafValues></_>
        <_>
          <internalNodes>
            0 -1 68 -705625385 -153808841 -527158177 1439109271
            -937653553 -1434811765 -199444737 -10874098</internalNodes>
          <leafValues>
            -5.1036822795867920e-01 5.7781296968460083e-01</leafValues></_></weakClassifiers></_>
    <!-- stage 4 -->
    <_>
      <maxWeakCount>10</maxWeakCount>
      <stageThreshold>-1.2984822988510132e+00</stageThreshold>
      <weakClassifiers>
        <_>
          <internalNodes>
            0 -1 86 -33563394 1145961727 1409282914 1095105511
            -269579009 83840767 -1073741825 -10241</internalNodes>
          <leafValues>
            -4.7682800889015198e-01 5.3946298360824585e-01</leafValues></_>
        <_>
          <internalNodes>
            0 -1 142 -478154837 1192667966 355222608 1632819371
            -271674868 1207994880 -754719984 1196418566</internalNodes>
          <leafValues>
            -5.7616680860519409e-01 4.5165765285491943e-01</leafValues></_>
        <_>
          <internalNodes>
            0 -1 13 -244322321 -970266848 -1880258998 -1009784341
            -580931638 1414416194 -800824079 -452988981</internalNodes>
          <leafValues>
            -4.4104185700416565e-01 5.4994463920593262e-01</leafValues></_>
        <_>
          <internalNodes>
            0 -1 41 -604835590 1239350295 -205501702 1971491080
            -638615314 47777024 -477105414 2144427726</internalNodes>
          <leafValues>
            -6.1701875925064087e-01 3.9755257964134216e-01</leafValues></_>
        <_>
          <internalNodes>
            0 -1 56 716742601 -156526655 -575143941 -38567951
            -1948213816 -336633857 -2013635137 -1750513387</internalNodes>
          <leafValues>
            -4.7932305932044983e-01 5.3385138511657715e-01</leafValues></_>
        <_>
          <internalNodes>
            0 -1 84 -550791936 1409314820 -2134391845 -43658517
            -129497443 -234740991 -494474258 2135755022</internalNodes>
          <leafValues>
            -7.2991597652435303e-01 3.3724108338356018e-01</leafValues></_>
        <_>
          <internalNodes>
            0 -1 95 1745354845 -249936114 -1801437027 -140651823
            -1261524936 -150847007 -1107261268 2141854194</internalNodes>
          <leafValues>
            -5.6929719448089600e-01 4.9457904696464539e-01</leafValues></_>
        <_>
          <internalNodes>
            0 -1 145 -606625989 -347995590 -2130505462 -224897142
            315166928 1097138184 1117155204 -672007275</internalNodes>
          <leafValues>
            -5.3077697753906250e-01 5.0933843851089478e-01</leafValues></_>
        <_>
          <internalNodes>
            0 -1 74 -922772337 2100475288 -1996486362 1972361323
            -1702441976 323076289 -1568163701 -1077437941</internalNodes>
          <leafValues>
            -5.7450300455093384e-01 4.8962864279747009e-01</leafValues></_>
        <_>
          <internalNodes>
            0 -1 136 1945041902 -1100021994 -755045873 -303302034
            -411052209 1599995673 1962192966 -403310677</internalNodes>
          <leafValues>
            -5.1334691047668457e-01 5.5081450939178467e-01</leafValues></_></weakClassifiers></_>
    <!-- stage 5 -->
    <_>
      <maxWeakCount>11</maxWeakCount>
      <stageThreshold>-7.6571983098983765e-01</stageThreshold>
      <weakClassifiers>
        <_>
          <internalNodes>
            0 -1 118 -6300069 -631308538 1121976177 1349386079 -6648
            -32609280 -1199572434 -228589985</internalNodes>
          <leafValues>
            -3.5732218623161316e-01 6.2388062477111816e-01</leafValues></_>
        <_>
          <internalNodes>
            0 -1 39 -611916886 -1476345214 1149792353 -807017968
            -905412216 -1071081184 1493555688 -546047632</internalNodes>
          <leafValues>
            -5.8260518312454224e-01 3.9939951896667480e-01</leafValues></_>
        <_>
          <internalNodes>
            0 -1 33 -51127057 -581964593 821542638 -797906186 -178368953
            -547487908 -228589606 -210764853</internalNodes>
          <leafValues>
            -3.8915249705314636e-01 5.8810693025588989e-01</leafValues></_>
        <_>
          <internalNodes>
            0 -1 67 -644659972 -247356643 -2097056427 -150654438
            -1316683557 -477941495 -524107555 -80803814</internalNodes>
          <leafValues>
            -5.7799386978149414e-01 4.0861806273460388e-01</leafValues></_>
        <_>
          <internalNodes>
            0 -1 138 -69469400 1138529426 -1069497072 -707275949
            -91518203 1094748968 1190383760 2007494279</internalNodes>
          <leafValues>
            -7.3390287160873413e-01 3.1273788213729858e-01</leafValues></_>
        <_>
          <internalNodes>
            0 -1 106 -915358040 16812112 805306582 -1188277504 562564332
            293863464 -1818063667 -1073748593</internalNodes>
          <leafValues>
            -6.5736901760101318e-01 3.8840276002883911e-01</leafValues></_>
        <_>
          <internalNodes>
            0 -1 1 30405375 -1343410554 -453013255 -3858752 -413731585
            -704907339 1182249206 -30686550</internalNodes>
          <leafValues>
            -4.1244852542877197e-01 6.1516869068145752e-01</leafValues></_>
        <_>
          <internalNodes>
            0 -1 52 -262184841 -1688532746 774743 -113768238 -1071644464
            1803590277 -578784870 -620602917</internalNodes>
          <leafValues>
            -4.9536651372909546e-01 5.2755409479141235e-01</leafValues></_>
        <_>
          <internalNodes>
            0 -1 40 -720308537 -804532193 839194847 -587070781
            1428160765 -745734076 1098908379 -156811097</internalNodes>
          <leafValues>
            -5.7111489772796631e-01 4.8617118597030640e-01</leafValues></_>
        <_>
          <internalNodes>
            0 -1 129 -405958 -16298652 -1343361101 -1646142052
            2127465892 -563120601 -303610936 -332291401</internalNodes>
          <leafValues>
            -5.0252443552017212e-01 5.5182874202728271e-01</leafValues></_>
        <_>
          <internalNodes>
            0 -1 140 -739248853 -964639482 880968998 -255803000
            -268065707 805388933 1392697874 -169688565</internalNodes>
          <leafValues>
            -5.8531272411346436e-01 4.5305091142654419e-01</leafValues></_></weakClassifiers></_>
    <!-- stage 6 -->
    <_>
      <maxWeakCount>12</maxWeakCount>
      <stageThreshold>-3.5867547988891602e-01</stageThreshold>
      <weakClassifiers>
        <_>
          <internalNodes>
            0 -1 75 -1794375683 1461364065 16898507 1057999627 654903485
            470958560 992881128 530574030</internalNodes>
          <leafValues>
            -5.3566795587539673e-01 4.2897132039070129e-01</leafValues></_>
        <_>
          <internalNodes>
            0 -1 94 1561530369 -615036051 -2130464425 -648887595
            725331971 -346948286 -1960079438 -1291656934</internalNodes>
          <leafValues>
            -4.5969888567924500e-01 4.8421400785446167e-01</leafValues></_>
        <_>
          <internalNodes>
            0 -1 59 1016889567 -490759995 675817727 414454476 40371454
            -1568615775 -1970812769 -542717740</internalNodes>
          <leafValues>
            -4.9500149488449097e-01 4.2243525385856628e-01</leafValues></_>
        <_>
          <internalNodes>
            0 -1 32 -62738246 1259308622 -2012699406 -783757160
            1228472574 1587232778 -1677086500 -380081230</internalNodes>
          <leafValues>
            -5.1143246889114380e-01 4.5566844940185547e-01</leafValues></_>
        <_>
          <internalNodes>
            0 -1 26 -947920210 256410052 -1669199344 -821980733
            182174635 178686036 -367611029 -819467437</internalNodes>
          <leafValues>
            -5.5020815134048462e-01 4.0994912385940552e-01</leafValues></_>
        <_>
          <internalNodes>
            0 -1 114 -618987438 -603369167 -536694437 -753838253
            -1165826334 -15630175 -1305349541 -351704681</internalNodes>
          <leafValues>
            -4.7946357727050781e-01 4.8518911004066467e-01</leafValues></_>
        <_>
          <internalNodes>
            0 -1 139 -454295653 -1146168339 -142868620 1928462199
            -58762168 1561124821 -639516412 -782503665</internalNodes>
          <leafValues>
            -3.9734968543052673e-01 5.6782788038253784e-01</leafValues></_>
        <_>
          <internalNodes>
            0 -1 58 -788292523 -769272436 1342935829 1530736870
            -183564147 -89601331 1090633918 1642678492</internalNodes>
          <leafValues>
            -5.5055505037307739e-01 4.1237884759902954e-01</leafValues></_>
        <_>
          <internalNodes>
            0 -1 113 -1424303880 2069402016 1082233108 1570355984
            949533369 -1952153430 306762689 528634545</internalNodes>
          <leafValues>
            -6.3437485694885254e-01 3.6266118288040161e-01</leafValues></_>
        <_>
          <internalNodes>
            0 -1 98 -479199935 1532755807 1786248825 1364326397
            2113861848 -548278704 -488911650 -1172843542</internalNodes>
          <leafValues>
            -4.6289128065109253e-01 5.2619093656539917e-01</leafValues></_>
        <_>
          <internalNodes>
            0 -1 93 -708268143 89297265 119057 -138014304 -1030362440
            -1702328141 1087373381 -676609856</internalNodes>
          <leafValues>
            -4.9373179674148560e-01 4.9902567267417908e-01</leafValues></_>
        <_>
          <internalNodes>
            0 -1 111 -1055145806 403505216 -2121610865 432734367
            1712358048 147423964 -1945403313 -1885026133</internalNodes>
          <leafValues>
            -5.0950157642364502e-01 4.9847418069839478e-01</leafValues></_></weakClassifiers></_>
    <!-- stage 7 -->
    <_>
      <maxWeakCount>11</maxWeakCount>
      <stageThreshold>-1.2830474376678467e+00</stageThreshold>
      <weakClassifiers>
        <_>
          <internalNodes>
            0 -1 88 -44173329 88797485 -1199568184 824638719 -324337528
            1422530783 -2004833365 -308311602</internalNodes>
          <leafValues>
            -5.1318943500518799e-01 4.5973646640777588e-01</leafValues></_>
        <_>
          <internalNodes>
            0 -1 130 -543306257 -1062994 -1481966601 703196671
            1442173104 -541600140 -205660796 -406329929</internalNodes>
          <leafValues>
            -3.6889171600341797e-01 5.9019047021865845e-01</leafValues></_>
        <_>
          <internalNodes>
            0 -1 90 -13175708 20804545 252152019 278332161 730530224
            894341254 1001326600 1073725379</internalNodes>
          <leafValues>
            -7.3038315773010254e-01 3.1526187062263489e-01</leafValues></_>
        <_>
          <internalNodes>
            0 -1 21 -74187046 -265448024 -1878872124 328430028
            -478052150 -209546630 -492352773 1599428692</internalNodes>
          <leafValues>
            -6.8246871232986450e-01 3.3539804816246033e-01</leafValues></_>
        <_>
          <internalNodes>
            0 -1 117 -793906486 -699324088 1226054331 -615731645
            -1439315776 -483589358 -133256582 2047334522</internalNodes>
          <leafValues>
            -5.5830568075180054e-01 3.8995003700256348e-01</leafValues></_>
        <_>
          <internalNodes>
            0 -1 64 688914576 -1794795379 -1979419511 -1087027043
            -1564270359 -65363827 -2083644932 -1412691571</internalNodes>
          <leafValues>
            -6.8054771423339844e-01 2.9764038324356079e-01</leafValues></_>
        <_>
          <internalNodes>
            0 -1 5 -531386673 -749812896 1107297374 1711325209
            -970851001 -939509504 830502684 -31617910</internalNodes>
          <leafValues>
            -5.0054782629013062e-01 4.6093133091926575e-01</leafValues></_>
        <_>
          <internalNodes>
            0 -1 70 -1838872570 -748420965 -1878862793 -187001557
            -2138045813 -1996422208 -637430645 -95807330</internalNodes>
          <leafValues>
            -6.0482072830200195e-01 3.8875085115432739e-01</leafValues></_>
        <_>
          <internalNodes>
            0 -1 76 -1125445144 -1685894694 -1986496044 -307184164
            151845792 168299113 571597025 -537974552</internalNodes>
          <leafValues>
            -6.3287788629531860e-01 3.4640145301818848e-01</leafValues></_>
        <_>
          <internalNodes>
            0 -1 144 -143132886 -493975795 -1996447156 -941260617
            -439694076 1326538818 -506826028 -403182442</internalNodes>
          <leafValues>
            -6.0585176944732666e-01 3.8220155239105225e-01</leafValues></_>
        <_>
          <internalNodes>
            0 -1 97 -1107487651 -37925483 -1098949123 2045733439
            -1124270114 -17891465 2090926015 -1424866177</internalNodes>
          <leafValues>
            -4.1419535875320435e-01 5.7305908203125000e-01</leafValues></_></weakClassifiers></_>
    <!-- stage 8 -->
    <_>
      <maxWeakCount>12</maxWeakCount>
      <stageThreshold>-7.1010130643844604e-01</stageThreshold>
      <weakClassifiers>
        <_>
          <internalNodes>
            0 -1 60 17125845 352671517 1280333109 1605457674 -1786647857
            160210312 -1065105061 -1079772530</internalNodes>
          <leafValues>
            -5.0421178340911865e-01 4.5215484499931335e-01</leafValues></_>
        <_>
          <internalNodes>
            0 -1 120 -620503072 1475834677 -2128588456 226594997
            -794730288 1724989536 -362873908 1338898431</internalNodes>
          <leafValues>
            -5.5684262514114380e-01 3.8056790828704834e-01</leafValues></_>
        <_>
          <internalNodes>
            0 -1 104 -421528049 -2079929505 -1744501945 -161757794
            -734920704 268441352 -627901846 -86295733</internalNodes>
          <leafValues>
            -5.2970957756042480e-01 3.9222866296768188e-01</leafValues></_>
        <_>
          <internalNodes>
            0 -1 133 -1777419266 -1318540764 -788122672 -108667660
            -1567444230 -1945582415 302293436 -118630059</internalNodes>
          <leafValues>
            -4.9211013317108154e-01 4.4337159395217896e-01</leafValues></_>
        <_>
          <internalNodes>
            0 -1 4 -892606929 225286 1346736390 -2113638063 -1836338333
            34127917 -784076220 -428868722</internalNodes>
          <leafValues>
            -5.2849614620208740e-01 3.9643281698226929e-01</leafValues></_>
        <_>
          <internalNodes>
            0 -1 33 -9974273 -548028530 -1309266201 2015427322 -44643172
            -446693604 -27263269 -212337697</internalNodes>
          <leafValues>
            -3.8870376348495483e-01 6.1250078678131104e-01</leafValues></_>
        <_>
          <internalNodes>
            0 -1 35 -542269382 1979223295 117111542 1111129330 -16841591
            -580110080 -279798070 -1693720609</internalNodes>
          <leafValues>
            -4.5084962248802185e-01 5.4344105720520020e-01</leafValues></_>
        <_>
          <internalNodes>
            0 -1 96 415761872 -619232695 291672479 1566130345
            -1337664248 -390954711 -863181174 774926654</internalNodes>
          <leafValues>
            -7.1127444505691528e-01 3.2191026210784912e-01</leafValues></_>
        <_>
          <internalNodes>
            0 -1 127 -184605174 -229203395 -669966055 -398417888
            -255193532 -118025973 425812482 -211523713</internalNodes>
          <leafValues>
            -5.9442079067230225e-01 3.8553631305694580e-01</leafValues></_>
        <_>
          <internalNodes>
            0 -1 55 -1417490384 -1111210335 1506394333 -1047457448
            440928441 -1103043952 -1413829777 157831568</internalNodes>
          <leafValues>
            -7.1633011102676392e-01 3.1993776559829712e-01</leafValues></_>
        <_>
          <internalNodes>
            0 -1 92 -749661252 -721125080 1619149565 -73825539
            -2036213277 251716080 -1845394679 -1088610751</internalNodes>
          <leafValues>
            -5.3161364793777466e-01 4.3899744749069214e-01</leafValues></_>
        <_>
          <internalNodes>
            0 -1 49 -923850985 320200567 2104843125 1966202709 -12599308
            -1081344227 -5245953 -550513407</internalNodes>
          <leafValues>
            -4.3843996524810791e-01 5.4548627138137817e-01</leafValues></_></weakClassifiers></_>
    <!-- stage 9 -->
    <_>
      <maxWeakCount>12</maxWeakCount>
      <stageThreshold>-5.0438088178634644e-01</stageThreshold>
      <weakClassifiers>
        <_>
          <internalNodes>
            0 -1 31 -218105857 -4260145 -1431394642 -252068113
            -211834034 2069675796 -328299185 -227148978</internalNodes>
          <leafValues>
            -2.9772192239761353e-01 6.2459546327590942e-01</leafValues></_>
        <_>
          <internalNodes>
            0 -1 0 -888675545 -1507082512 -1359544321 -273682532
            -44304645 -817891331 -269142303 -410521232</internalNodes>
          <leafValues>
            -3.9817136526107788e-01 4.9949073791503906e-01</leafValues></_>
        <_>
          <internalNodes>
            0 -1 85 -134766076 1901015083 -2147417609 -1660845079
            -1559850773 1804534406 -1978209929 1053542790</internalNodes>
          <leafValues>
            -5.6075793504714966e-01 3.6719223856925964e-01</leafValues></_>
        <_>
          <internalNodes>
            0 -1 80 -1865259752 2068381953 2031562623 1312526683
            327878872 -1884815246 168478768 456325824</internalNodes>
          <leafValues>
            -6.3674539327621460e-01 3.1882271170616150e-01</leafValues></_>
        <_>
          <internalNodes>
            0 -1 81 1339760456 -82542336 369167191 84280899 -1492401924
            -89222790 -2144427399 842242671</internalNodes>
          <leafValues>
            -5.5693495273590088e-01 3.8105016946792603e-01</leafValues></_>
        <_>
          <internalNodes>
            0 -1 144 -1011880562 1633218687 1125194141 -533343800
            -632700402 50565122 -417072560 1943796367</internalNodes>
          <leafValues>
            -5.9635788202285767e-01 3.2537898421287537e-01</leafValues></_>
        <_>
          <internalNodes>
            0 -1 132 -774979400 832660554 -2138761215 -1752186062
            67338393 -717078432 -910126924 -985206730</internalNodes>
          <leafValues>
            -5.8854800462722778e-01 3.7492591142654419e-01</leafValues></_>
        <_>
          <internalNodes>
            0 -1 124 1294985139 -1713329268 1442467767 -787641684
            -683805822 -290689033 -1775339825 -570557767</internalNodes>
          <leafValues>
            -4.1003298759460449e-01 5.8871978521347046e-01</leafValues></_>
        <_>
          <internalNodes>
            0 -1 43 -1281851020 -46002144 269779221 1535414428
            -1718546052 -102563111 697961979 -1943527400</internalNodes>
          <leafValues>
            -5.1081633567810059e-01 4.6326884627342224e-01</leafValues></_>
        <_>
          <internalNodes>
            0 -1 7 -732266404 -217574965 103862431 -401815288
            -1985302919 321388569 773172223 -568358629</internalNodes>
          <leafValues>
            -5.1263415813446045e-01 4.6315017342567444e-01</leafValues></_>
        <_>
          <internalNodes>
            0 -1 12 372612863 120583390 -64379162 -965936514 1439688679
            1870132436 -1488595930 -946867761</internalNodes>
          <leafValues>
            -4.5407974720001221e-01 5.3097218275070190e-01</leafValues></_>
        <_>
          <internalNodes>
            0 -1 123 -1060322662 184550026 -2143070718 198967300
            654358959 1501612203 1262658580 -2128619303</internalNodes>
          <leafValues>
            -6.7619562149047852e-01 3.7791430950164795e-01</leafValues></_></weakClassifiers></_>
    <!-- stage 10 -->
    <_>
      <maxWeakCount>12</maxWeakCount>
      <stageThreshold>-1.5966634452342987e-01</stageThreshold>
      <weakClassifiers>
        <_>
          <internalNodes>
            0 -1 46 2130702303 -169 -1 -2753 -17387422 -218372553
            -202179921 -1090901974</internalNodes>
          <leafValues>
            -4.0327239036560059e-01 5.3316104412078857e-01</leafValues></_>
        <_>
          <internalNodes>
            0 -1 121 1472419068 59176843 -182447760 -1074795385
            1355178140 224297152 14534872 1124311792</internalNodes>
          <leafValues>
            -5.5898922681808472e-01 3.7621700763702393e-01</leafValues></_>
        <_>
          <internalNodes>
            0 -1 36 -686322979 -96026890 -1100022086 -570360066
            -47364980 -1224900869 -696648357 -14565812</internalNodes>
          <leafValues>
            -4.1293293237686157e-01 5.1031148433685303e-01</leafValues></_>
        <_>
          <internalNodes>
            0 -1 45 -1971129966 -1087997392 -1611137097 -174734016
            -1993409494 1342109686 267304939 -819260211</internalNodes>
          <leafValues>
            -4.3025222420692444e-01 4.7669175267219543e-01</leafValues></_>
        <_>
          <internalNodes>
            0 -1 3 -18937066 -2038037460 -2144992512 182641307
            -686618980 -938856938 874836322 -733090102</internalNodes>
          <leafValues>
            -5.0396376848220825e-01 4.1709405183792114e-01</leafValues></_>
        <_>
          <internalNodes>
            0 -1 128 -95162130 -220874534 -1845488063 1075839046
            -2138601470 -886734839 2048778658 2002250067</internalNodes>
          <leafValues>
            -5.4799985885620117e-01 3.9433199167251587e-01</leafValues></_>
        <_>
          <internalNodes>
            0 -1 68 -1073750209 -880980 -536871371 -1612763713 -2724210
            2113351390 -67213620 -269743405</internalNodes>
          <leafValues>
            -3.7599506974220276e-01 5.7627272605895996e-01</leafValues></_>
        <_>
          <internalNodes>
            0 -1 109 -1870993899 -149605361 205083 1464019794
            -1173777912 -1710193150 -1541358753 -1708917890</internalNodes>
          <leafValues>
            -4.7440829873085022e-01 4.8283541202545166e-01</leafValues></_>
        <_>
          <internalNodes>
            0 -1 77 -2003561515 -439135983 486607069 865608031
            -1136016484 -1601662968 746813694 1872691332</internalNodes>
          <leafValues>
            -4.4542151689529419e-01 5.2336913347244263e-01</leafValues></_>
        <_>
          <internalNodes>
            0 -1 115 -95009956 1595494863 286493285 2077083705
            -1274229950 -380632947 234854648 2050682026</internalNodes>
          <leafValues>
            -5.7084923982620239e-01 3.9565610885620117e-01</leafValues></_>
        <_>
          <internalNodes>
            0 -1 83 2077401023 637569961 5312522 144904352 -2146530152
            1837273117 1452523714 1577488590</internalNodes>
          <leafValues>
            -5.8715820312500000e-01 4.0198546648025513e-01</leafValues></_>
        <_>
          <internalNodes>
            0 -1 79 -138520823 1945664790 -8289 -740687954 -595651341
            -1311703170 -136499783 -493724006</internalNodes>
          <leafValues>
            -4.5690229535102844e-01 5.1746720075607300e-01</leafValues></_></weakClassifiers></_>
    <!-- stage 11 -->
    <_>
      <maxWeakCount>13</maxWeakCount>
      <stageThreshold>-9.0556424856185913e-01</stageThreshold>
      <weakClassifiers>
        <_>
          <internalNodes>
            0 -1 61 313465660 1956413374 1023344573 -171901121
            -1963395107 -151584937 -1170932489 -20776200</internalNodes>
          <leafValues>
            -4.0038314461708069e-01 5.3460210561752319e-01</leafValues></_>
        <_>
          <internalNodes>
            0 -1 100 -795880811 -795670500 1141146755 -623066303
            1527013562 -592773048 986847130 2054749663</internalNodes>
          <leafValues>
            -5.2660477161407471e-01 4.1909375786781311e-01</leafValues></_>
        <_>
          <internalNodes>
            0 -1 135 1873542570 -967835657 -101711920 2050719739
            1723200369 -722010305 -227283216 -351013646</internalNodes>
          <leafValues>
            -4.1925120353698730e-01 5.0285005569458008e-01</leafValues></_>
        <_>
          <internalNodes>
            0 -1 20 -571870222 94777442 157582812 -945155840 408073060
            -1391484789 -928759590 -11152568</internalNodes>
          <leafValues>
            -5.3811216354370117e-01 3.7197396159172058e-01</leafValues></_>
        <_>
          <internalNodes>
            0 -1 71 1279600077 895420279 1607484712 51549072 -2004776771
            298878594 -2011166678 815842438</internalNodes>
          <leafValues>
            -6.9209480285644531e-01 3.2786217331886292e-01</leafValues></_>
        <_>
          <internalNodes>
            0 -1 54 2143185911 -105558512 -1090589231 -1120294723
            250943440 -537004036 -1073980199 -54894625</internalNodes>
          <leafValues>
            -4.0439230203628540e-01 6.0963714122772217e-01</leafValues></_>
        <_>
          <internalNodes>
            0 -1 38 -909387117 -551835934 1577710687 -70304048 489354146
            -412942798 -1789602749 -842017190</internalNodes>
          <leafValues>
            -3.2508885860443115e-01 6.9797813892364502e-01</leafValues></_>
        <_>
          <internalNodes>
            0 -1 8 -324608912 1902351550 -1878929089 -2112611003
            1082261812 -1354596347 -1076769628 -1207201249</internalNodes>
          <leafValues>
            -4.9817633628845215e-01 4.4571751356124878e-01</leafValues></_>
        <_>
          <internalNodes>
            0 -1 42 -428991466 -94879159 704664347 -1392487549 297861608
            45265260 -1595483720 201463408</internalNodes>
          <leafValues>
            -7.0507496595382690e-01 3.0823919177055359e-01</leafValues></_>
        <_>
          <internalNodes>
            0 -1 126 579011174 -183548639 675500502 472209830 -670577664
            1896219685 -375052110 -1037950770</internalNodes>
          <leafValues>
            -5.5770695209503174e-01 4.1770473122596741e-01</leafValues></_>
        <_>
          <internalNodes>
            0 -1 53 1434562262 1559576597 1074009371 1495894024
            1217158348 1599049884 -393965110 2044802362</internalNodes>
          <leafValues>
            -5.7170796394348145e-01 3.8642168045043945e-01</leafValues></_>
        <_>
          <internalNodes>
            0 -1 125 1560794550 -2029255690 1346482480 1297334464
            -536828685 76169450 -1304856655 -1706081147</internalNodes>
          <leafValues>
            -4.7875165939331055e-01 4.8993504047393799e-01</leafValues></_>
        <_>
          <internalNodes>
            0 -1 47 -2012884446 -96763006 -2130705000 1842151454
            -1517575495 -98475357 -1546280163 118261179</internalNodes>
          <leafValues>
            -6.7652148008346558e-01 3.5324099659919739e-01</leafValues></_></weakClassifiers></_>
    <!-- stage 12 -->
    <_>
      <maxWeakCount>12</maxWeakCount>
      <stageThreshold>-6.0131633281707764e-01</stageThreshold>
      <weakClassifiers>
        <_>
          <internalNodes>
            0 -1 103 -134243841 83500150 1073741823 431161343 -520444280
            922041855 788475903 -1073741825</internalNodes>
          <leafValues>
            -3.7308040261268616e-01 5.6084173917770386e-01</leafValues></_>
        <_>
          <internalNodes>
            0 -1 119 -304096249 1442705262 1627369024 -1862668289
            -135823866 -318472372 -52704532 -260577285</internalNodes>
          <leafValues>
            -4.4657745957374573e-01 4.7612860798835754e-01</leafValues></_>
        <_>
          <internalNodes>
            0 -1 30 -765416818 1409820867 543393294 -792215483
            -1031614389 -852787200 -519845032 -210919345</internalNodes>
          <leafValues>
            -4.4782474637031555e-01 4.3979957699775696e-01</leafValues></_>
        <_>
          <internalNodes>
            0 -1 19 -1535069088 686333578 1132782978 -196283950
            1645982345 170475665 -532384893 663699905</internalNodes>
          <leafValues>
            -6.0727709531784058e-01 3.3349883556365967e-01</leafValues></_>
        <_>
          <internalNodes>
            0 -1 69 901977471 1428883733 1344864769 286064896 -250576504
            1245414476 -1651867016 1527573162</internalNodes>
          <leafValues>
            -5.9627580642700195e-01 3.4930285811424255e-01</leafValues></_>
        <_>
          <internalNodes>
            0 -1 91 -2115012646 -1626349029 -777384828 -892637282
            1347092553 103350520 -2077521631 630828747</internalNodes>
          <leafValues>
            -5.4081112146377563e-01 3.6687493324279785e-01</leafValues></_>
        <_>
          <internalNodes>
            0 -1 18 -1794452294 307761245 -213872374 -1763335142
            -1289883466 -380628872 -2129675897 -592101196</internalNodes>
          <leafValues>
            -4.7348409891128540e-01 4.5631048083305359e-01</leafValues></_>
        <_>
          <internalNodes>
            0 -1 134 -1211514453 50796091 -729489499 -1316400623
            -913159781 -1987532786 -2066992827 -2132815646</internalNodes>
          <leafValues>
            -4.9288794398307800e-01 4.7416621446609497e-01</leafValues></_>
        <_>
          <internalNodes>
            0 -1 104 -415112696 -2140629042 4739265 -234708429
            -268156916 1344633372 -190609906 818890914</internalNodes>
          <leafValues>
            -7.2317159175872803e-01 3.1052234768867493e-01</leafValues></_>
        <_>
          <internalNodes>
            0 -1 143 -991736001 1311024285 1426198528 1384726862
            -159126678 -936761340 1806533594 1181479893</internalNodes>
          <leafValues>
            -4.5121335983276367e-01 5.0499129295349121e-01</leafValues></_>
        <_>
          <internalNodes>
            0 -1 37 -2129158418 110694460 1434769627 -915283875
            467272843 -387798960 -532632657 -97887864</internalNodes>
          <leafValues>
            -4.7937270998954773e-01 4.9303162097930908e-01</leafValues></_>
        <_>
          <internalNodes>
            0 -1 24 -1001420576 1346429058 18499097 -353363264
            1082231694 -2130130918 -1601926967 -2058004729</internalNodes>
          <leafValues>
            -6.1117714643478394e-01 3.9610204100608826e-01</leafValues></_></weakClassifiers></_>
    <!-- stage 13 -->
    <_>
      <maxWeakCount>11</maxWeakCount>
      <stageThreshold>-3.9576286077499390e-01</stageThreshold>
      <weakClassifiers>
        <_>
          <internalNodes>
            0 -1 6 -1941509385 1340080127 -70067856 -18354434
            -1469847567 133659645 -486731324 -50876042</internalNodes>
          <leafValues>
            -3.4870848059654236e-01 5.1792114973068237e-01</leafValues></_>
        <_>
          <internalNodes>
            0 -1 16 -36634653 -1191143295 -1744416385 220578197
            1941992791 -635834840 637751791 -141920480</internalNodes>
          <leafValues>
            -5.0137883424758911e-01 3.9874768257141113e-01</leafValues></_>
        <_>
          <internalNodes>
            0 -1 122 -185213040 927449218 1707541120 -632175901
            -788245492 -1006581748 1085491140 1419026944</internalNodes>
          <leafValues>
            -6.7130374908447266e-01 2.9610046744346619e-01</leafValues></_>
        <_>
          <internalNodes>
            0 -1 9 1569456154 1564607004 135267547 -1937458788 8652016
            -1136525183 658590344 -1140689350</internalNodes>
          <leafValues>
            -5.3591209650039673e-01 3.6917081475257874e-01</leafValues></_>
        <_>
          <internalNodes>
            0 -1 2 931279350 -1341725106 356614444 -72472512 722496821
            -2137906919 1748259212 -214398280</internalNodes>
          <leafValues>
            -5.6860738992691040e-01 3.4277892112731934e-01</leafValues></_>
        <_>
          <internalNodes>
            0 -1 116 450869971 2096581917 -570523825 -144712355
            -1082196946 -673743539 -497223811 -351703205</internalNodes>
          <leafValues>
            -4.1802626848220825e-01 5.0499475002288818e-01</leafValues></_>
        <_>
          <internalNodes>
            0 -1 62 324859612 285762816 -1928266534 613779987 -670962604
            151625736 2139892392 2075000859</internalNodes>
          <leafValues>
            -5.9255719184875488e-01 3.7457099556922913e-01</leafValues></_>
        <_>
          <internalNodes>
            0 -1 50 -100382748 1363280023 1325459571 1493962177
            -644276060 -125270004 268439184 446787712</internalNodes>
          <leafValues>
            -7.1524173021316528e-01 2.5791096687316895e-01</leafValues></_>
        <_>
          <internalNodes>
            0 -1 57 -1466253326 -50331691 -129 -592159403 -1091346439
            -933898 -268449831 -10922145</internalNodes>
          <leafValues>
            -4.2498096823692322e-01 5.2760159969329834e-01</leafValues></_>
        <_>
          <internalNodes>
            0 -1 11 1740858722 948302162 -1872756645 -461089741
            671146013 -664000332 -872118255 -613318896</internalNodes>
          <leafValues>
            -6.2913072109222412e-01 3.5955137014389038e-01</leafValues></_>
        <_>
          <internalNodes>
            0 -1 12 -620303110 -468850669 -796883952 1373929554
            1132573098 1536917510 -2147233136 -362417429</internalNodes>
          <leafValues>
            -4.6356606483459473e-01 4.7299167513847351e-01</leafValues></_></weakClassifiers></_>
    <!-- stage 14 -->
    <_>
      <maxWeakCount>12</maxWeakCount>
      <stageThreshold>-1.0243766307830811e+00</stageThreshold>
      <weakClassifiers>
        <_>
          <internalNodes>
            0 -1 120 -28835856 1606151985 -1347522612 296598449
            -706347600 1878523249 -164 2146877435</internalNodes>
          <leafValues>
            -4.0990099310874939e-01 5.1596641540527344e-01</leafValues></_>
        <_>
          <internalNodes>
            0 -1 44 555930992 -776863268 -2145365604 -141745878
            -2147203947 -863336040 1642583003 -1969729087</internalNodes>
          <leafValues>
            -5.0233763456344604e-01 4.1248860955238342e-01</leafValues></_>
        <_>
          <internalNodes>
            0 -1 112 -1767715686 -1818982160 524251710 1431411575
            -302200453 -1631650574 245286559 -582132562</internalNodes>
          <leafValues>
            -4.3033263087272644e-01 4.8931545019149780e-01</leafValues></_>
        <_>
          <internalNodes>
            0 -1 14 -804451618 1879380058 499196552 -787795773
            -1071372102 -1568044424 1091339624 -42776225</internalNodes>
          <leafValues>
            -5.1006674766540527e-01 3.9767715334892273e-01</leafValues></_>
        <_>
          <internalNodes>
            0 -1 141 -938776086 -905018900 82448 1879217185 -1070855928
            -938890751 113516617 1128915712</internalNodes>
          <leafValues>
            -6.9469773769378662e-01 3.2193553447723389e-01</leafValues></_>
        <_>
          <internalNodes>
            0 -1 10 -1123877761 337055836 8618255 -789484877 -515719766
            -895647576 256578125 -1066511200</internalNodes>
          <leafValues>
            -4.6808347105979919e-01 4.8832643032073975e-01</leafValues></_>
        <_>
          <internalNodes>
            0 -1 61 271100605 1983676350 1726939069 1694826285
            -503449601 -419528874 -1162429194 -1209993102</internalNodes>
          <leafValues>
            -4.4164296984672546e-01 5.2545940876007080e-01</leafValues></_>
        <_>
          <internalNodes>
            0 -1 28 -2058990130 68325554 -916380256 -996802206
            -1316347228 1081992 -1069400021 -77241965</internalNodes>
          <leafValues>
            -6.0963308811187744e-01 3.5912007093429565e-01</leafValues></_>
        <_>
          <internalNodes>
            0 -1 34 -68550211 1104836417 921628158 303565438 939429082
            -331438068 1006165702 -5001474</internalNodes>
          <leafValues>
            -4.1463208198547363e-01 5.4140180349349976e-01</leafValues></_>
        <_>
          <internalNodes>
            0 -1 89 -852299561 -187923048 2195968 1485374208 687990873
            1493215245 279216129 -873798781</internalNodes>
          <leafValues>
            -4.2720642685890198e-01 5.3505766391754150e-01</leafValues></_>
        <_>
          <internalNodes>
            0 -1 107 -1909746191 330780315 -1073877121 528432599
            242539965 -8528530 -1497399301 -1145678543</internalNodes>
          <leafValues>
            -4.4557639956474304e-01 5.0911444425582886e-01</leafValues></_>
        <_>
          <internalNodes>
            0 -1 78 269096056 290554118 134468418 1401491484 973367486
            -1610608377 -1692799830 -1895823031</internalNodes>
          <leafValues>
            -5.5411678552627563e-01 4.5621562004089355e-01</leafValues></_></weakClassifiers></_></stages>
  <features>
    <_>
      <rect>
        0 0 2 3</rect></_>
    <_>
      <rect>
        0 2 3 1</rect></_>
    <_>
      <rect>
        0 4 2 4</rect></_>
    <_>
      <rect>
        0 6 1 2</rect></_>
    <_>
      <rect>
        0 7 1 1</rect></_>
    <_>
      <rect>
        0 7 2 2</rect></_>
    <_>
      <rect>
        0 10 4 1</rect></_>
    <_>
      <rect>
        0 11 3 1</rect></_>
    <_>
      <rect>
        0 12 3 1</rect></_>
    <_>
      <rect>
        0 13 3 1</rect></_>
    <_>
      <rect>
        1 0 3 2</rect></_>
    <_>
      <rect>
        1 1 3 3</rect></_>
    <_>
      <rect>
        1 4 1 1</rect></_>
    <_>
      <rect>
        1 5 1 1</rect></_>
    <_>
      <rect>
        1 5 2 2</rect></_>
    <_>
      <rect>
        1 5 3 3</rect></_>
    <_>
      <rect>
        1 6 3 1</rect></_>
    <_>
      <rect>
        1 10 4 2</rect></_>
    <_>
      <rect>
        2 0 2 2</rect></_>
    <_>
      <rect>
        2 2 1 1</rect></_>
    <_>
      <rect>
        2 2 2 2</rect></_>
    <_>
      <rect>
        2 2 2 4</rect></_>
    <_>
      <rect>
        2 2 3 3</rect></_>
    <_>
      <rect>
        2 3 4 3</rect></_>
    <_>
      <rect>
        2 4 1 2</rect></_>
    <_>
      <rect>
        2 4 4 2</rect></_>
    <_>
      <rect>
        2 5 1 1</rect></_>
    <_>
      <rect>
        2 5 1 2</rect></_>
    <_>
      <rect>
        2 6 1 1</rect></_>
    <_>
      <rect>
        2 6 2 1</rect></_>
    <_>
      <rect>
        2 7 1 1</rect></_>
    <_>
      <rect>
        2 8 1 1</rect></_>
    <_>
      <rect>
        2 8 2 2</rect></_>
    <_>
      <rect>
        2 9 1 1</rect></_>
    <_>
      <rect>
        2 9 1 2</rect></_>
    <_>
      <rect>
        2 10 1 1</rect></_>
    <_>
      <rect>
        2 10 2 1</rect></_>
    <_>
      <rect>
        2 11 2 1</rect></_>
    <_>
      <rect>
        3 3 1 1</rect></_>
    <_>
      <rect>
        3 4 1 1</rect></_>
    <_>
      <rect>
        3 6 2 1</rect></_>
    <_>
      <rect>
        3 8 2 2</rect></_>
    <_>
      <rect>
        3 12 2 1</rect></_>
    <_>
      <rect>
        3 13 2 1</rect></_>
    <_>
      <rect>
        4 1 1 1</rect></_>
    <_>
      <rect>
        4 2 1 1</rect></_>
    <_>
      <rect>
        4 3 2 3</rect></_>
    <_>
      <rect>
        4 3 3 1</rect></_>
    <_>
      <rect>
        4 4 3 2</rect></_>
    <_>
      <rect>
        4 5 4 3</rect></_>
    <_>
      <rect>
        4 6 1 1</rect></_>
    <_>
      <rect>
        4 6 2 3</rect></_>
    <_>
      <rect>
        4 10 1 1</rect></_>
    <_>
      <rect>
        4 11 2 1</rect></_>
    <_>
      <rect>
        4 13 2 1</rect></_>
    <_>
      <rect>
        5 1 1 1</rect></_>
    <_>
      <rect>
        5 2 1 1</rect></_>
    <_>
      <rect>
        5 3 1 1</rect></_>
    <_>
      <rect>
        5 5 1 1</rect></_>
    <_>
      <rect>
        5 6 1 1</rect></_>
    <_>
      <rect>
        5 6 3 3</rect></_>
    <_>
      <rect>
        5 7 1 1</rect></_>
    <_>
      <rect>
        5 10 2 1</rect></_>
    <_>
      <rect>
        5 10 2 2</rect></_>
    <_>
      <rect>
        6 1 1 1</rect></_>
    <_>
      <rect>
        6 2 2 4</rect></_>
    <_>
      <rect>
        6 3 2 3</rect></_>
    <_>
      <rect>
        6 4 1 2</rect></_>
    <_>
      <rect>
        6 5 1 1</rect></_>
    <_>
      <rect>
        6 5 3 2</rect></_>
    <_>
      <rect>
        6 6 1 1</rect></_>
    <_>
      <rect>
        6 6 3 1</rect></_>
    <_>
      <rect>
        6 6 3 3</rect></_>
    <_>
      <rect>
        6 7 1 1</rect></_>
    <_>
      <rect>
        6 7 2 1</rect></_>
    <_>
      <rect>
        6 8 2 2</rect></_>
    <_>
      <rect>
        6 10 3 2</rect></_>
    <_>
      <rect>
        6 13 3 1</rect></_>
    <_>
      <rect>
        7 0 1 1</rect></_>
    <_>
      <rect>
        7 0 3 2</rect></_>
    <_>
      <rect>
        7 2 2 1</rect></_>
    <_>
      <rect>
        7 3 2 1</rect></_>
    <_>
      <rect>
        7 4 2 3</rect></_>
    <_>
      <rect>
        7 4 2 4</rect></_>
    <_>
      <rect>
        7 5 1 2</rect></_>
    <_>
      <rect>
        7 6 1 2</rect></_>
    <_>
      <rect>
        7 6 2 2</rect></_>
    <_>
      <rect>
        7 7 1 1</rect></_>
    <_>
      <rect>
        7 7 2 1</rect></_>
    <_>
      <rect>
        7 7 2 3</rect></_>
    <_>
      <rect>
        7 8 1 2</rect></_>
    <_>
      <rect>
        7 9 3 2</rect></_>
    <_>
      <rect>
        7 10 2 2</rect></_>
    <_>
      <rect>
        7 11 3 1</rect></_>
    <_>
      <rect>
        8 0 2 2</rect></_>
    <_>
      <rect>
        8 1 1 1</rect></_>
    <_>
      <rect>
        8 2 1 1</rect></_>
    <_>
      <rect>
        8 3 1 1</rect></_>
    <_>
      <rect>
        8 3 2 1</rect></_>
    <_>
      <rect>
        8 4 2 2</rect></_>
    <_>
      <rect>
        8 5 1 1</rect></_>
    <_>
      <rect>
        8 6 1 1</rect></_>
    <_>
      <rect>
        8 7 1 1</rect></_>
    <_>
      <rect>
        8 7 1 2</rect></_>
    <_>
      <rect>
        8 8 1 1</rect></_>
    <_>
      <rect>
        8 8 2 2</rect></_>
    <_>
      <rect>
        8 9 1 2</rect></_>
    <_>
      <rect>
        8 11 1 1</rect></_>
    <_>
      <rect>
        9 3 1 1</rect></_>
    <_>
      <rect>
        9 4 1 1</rect></_>
    <_>
      <rect>
        9 5 2 2</rect></_>
    <_>
      <rect>
        9 10 1 1</rect></_>
    <_>
      <rect>
        9 11 1 1</rect></_>
    <_>
      <rect>
        9 12 1 1</rect></_>
    <_>
      <rect>
        10 1 1 2</rect></_>
    <_>
      <rect>
        10 2 1 1</rect></_>
    <_>
      <rect>
        10 2 1 2</rect></_>
    <_>
      <rect>
        10 3 1 1</rect></_>
    <_>
      <rect>
        10 4 1 1</rect></_>
    <_>
      <rect>
        10 5 1 1</rect></_>
    <_>
      <rect>
        10 5 1 2</rect></_>
    <_>
      <rect>
        10 6 1 2</rect></_>
    <_>
      <rect>
        10 6 2 2</rect></_>
    <_>
      <rect>
        10 9 1 1</rect></_>
    <_>
      <rect>
        10 10 1 1</rect></_>
    <_>
      <rect>
        10 11 1 1</rect></_>
    <_>
      <rect>
        11 2 1 1</rect></_>
    <_>
      <rect>
        11 3 1 2</rect></_>
    <_>
      <rect>
        11 4 1 1</rect></_>
    <_>
      <rect>
        11 4 1 2</rect></_>
    <_>
      <rect>
        11 5 1 2</rect></_>
    <_>
      <rect>
        11 6 1 1</rect></_>
    <_>
      <rect>
        11 6 1 2</rect></_>
    <_>
      <rect>
        11 7 1 3</rect></_>
    <_>
      <rect>
        11 8 1 1</rect></_>
    <_>
      <rect>
        12 3 1 2</rect></_>
    <_>
      <rect>
        12 7 1 1</rect></_>
    <_>
      <rect>
        12 8 1 1</rect></_>
    <_>
      <rect>
        12 9 1 1</rect></_>
    <_>
      <rect>
        13 4 1 2</rect></_>
    <_>
      <rect>
        13 5 1 1</rect></_>
    <_>
      <rect>
        13 5 1 2</rect></_>
    <_>
      <rect>
        13 6 1 2</rect></_>
    <_>
      <rect>
        13 7 1 2</rect></_>
    <_>
      <rect>
        13 8 1 1</rect></_>
    <_>
      <rect>
        13 8 1 2</rect></_></features></cascade>
</opencv_storage>
