<?xml version="1.0"?>
<opencv_storage>
<cascade>
  <stageType>BOOST</stageType>
  <featureType>LBP</featureType>
  <height>24</height>
  <width>24</width>
  <stageParams>
    <boostType>GAB</boostType>
    <minHitRate>9.9900001287460327e-01</minHitRate>
    <maxFalseAlarm>2.0000000298023224e-01</maxFalseAlarm>
    <weightTrimRate>9.4999999999999996e-01</weightTrimRate>
    <maxDepth>1</maxDepth>
    <maxWeakCount>100</maxWeakCount></stageParams>
  <featureParams>
    <maxCatCount>256</maxCatCount>
    <featSize>1</featSize></featureParams>
  <stageNum>10</stageNum>
  <stages>
    <!-- stage 0 -->
    <_>
      <maxWeakCount>9</maxWeakCount>
      <stageThreshold>-1.4398778975009918e-01</stageThreshold>
      <weakClassifiers>
        <_>
          <internalNodes>
            0 -1 72 -13369857 789163690 880540923 201394855 -1204684545
            796917694 6143487 753871</internalNodes>
          <leafValues>
            -5.1532566547393799e-01 6.3840830326080322e-01</leafValues></_>
        <_>
          <internalNodes>
            0 -1 20 -407897197 -1374685600 -419562510 799996640
            -839395365 217972725 1089992404 -273156619</internalNodes>
          <leafValues>
            -4.8047265410423279e-01 6.6513097286224365e-01</leafValues></_>
        <_>
          <internalNodes>
            0 -1 91 -1367380865 -84177065 1861156861 1379036927
            -134998194 -566231172 922396894 -366318242</internalNodes>
          <leafValues>
            -4.9417507648468018e-01 6.1673730611801147e-01</leafValues></_>
        <_>
          <internalNodes>
            0 -1 105 -163055094 -905355058 -1744741366 1086576407
            -804731838 1430942215 -749821798 -185079889</internalNodes>
          <leafValues>
            -5.5257654190063477e-01 5.9680730104446411e-01</leafValues></_>
        <_>
          <internalNodes>
            0 -1 97 -1081357133 -1553296854 -1869492971 -1178361708
            428049663 -1970593589 25780615 -1669344563</internalNodes>
          <leafValues>
            -5.1386260986328125e-01 6.5212696790695190e-01</leafValues></_>
        <_>
          <internalNodes>
            0 -1 14 -273679381 -1397756370 1744810288 -63438940
            -285220897 -825753651 1987568884 -262408318</internalNodes>
          <leafValues>
            -4.4077381491661072e-01 7.0276015996932983e-01</leafValues></_>
        <_>
          <internalNodes>
            0 -1 103 -553972001 1449099087 -285295880 -227545094 -541361
            -8917153 1995427279 -218103841</internalNodes>
          <leafValues>
            -4.5212346315383911e-01 7.2257930040359497e-01</leafValues></_>
        <_>
          <internalNodes>
            0 -1 59 -742139198 -783580736 -1040088701 1377632256
            -1073257976 -1677637120 -1071476077 1087345280</internalNodes>
          <leafValues>
            -6.9560962915420532e-01 5.0864160060882568e-01</leafValues></_>
        <_>
          <internalNodes>
            0 -1 25 -234159011 277680385 364561 39134517 1080109124
            -620552055 -1974746632 -22875566</internalNodes>
          <leafValues>
            -5.6888812780380249e-01 6.1344367265701294e-01</leafValues></_></weakClassifiers></_>
    <!-- stage 1 -->
    <_>
      <maxWeakCount>11</maxWeakCount>
      <stageThreshold>-5.9947603940963745e-01</stageThreshold>
      <weakClassifiers>
        <_>
          <internalNodes>
            0 -1 6 1904013820 -237731584 1988170975 1463835231
            1485367996 -1744557708 67156217 1010594572</internalNodes>
          <leafValues>
            -5.8166861534118652e-01 5.1519644260406494e-01</leafValues></_>
        <_>
          <internalNodes>
            0 -1 76 -251912929 -38381251 -539164673 2105073149 -16842756
            -8421522 -50397954 -1163214854</internalNodes>
          <leafValues>
            -3.7879613041877747e-01 6.4084881544113159e-01</leafValues></_>
        <_>
          <internalNodes>
            0 -1 7 -271584269 629621170 -704570025 -36914544 -661619713
            -74792957 -239012895 -839524288</internalNodes>
          <leafValues>
            -4.8607909679412842e-01 5.1053529977798462e-01</leafValues></_>
        <_>
          <internalNodes>
            0 -1 101 -83890977 2004335966 -83952130 -260313095
            -546316338 -142774435 1962409982 -94372997</internalNodes>
          <leafValues>
            -3.4808215498924255e-01 6.9839829206466675e-01</leafValues></_>
        <_>
          <internalNodes>
            0 -1 109 -1544364110 -1115124816 -1862053391 -6225280
            545964446 539148434 3398107 -42119067</internalNodes>
          <leafValues>
            -5.4976868629455566e-01 4.7264030575752258e-01</leafValues></_>
        <_>
          <internalNodes>
            0 -1 51 -783813686 -993967672 872761098 1397588229
            -385234674 96772361 -699555678 1139798954</internalNodes>
          <leafValues>
            -6.0283970832824707e-01 4.6288737654685974e-01</leafValues></_>
        <_>
          <internalNodes>
            0 -1 22 1419419898 -648818612 2026045951 2099368406
            -1123403554 1906966920 271170239 34570504</internalNodes>
          <leafValues>
            -6.4235812425613403e-01 4.0617686510086060e-01</leafValues></_>
        <_>
          <internalNodes>
            0 -1 116 -268447954 1568664367 -2063777280 -1055940434
            402608111 296681307 -1037 1430759407</internalNodes>
          <leafValues>
            -4.9663645029067993e-01 5.3473013639450073e-01</leafValues></_>
        <_>
          <internalNodes>
            0 -1 42 1391761309 -780140129 -1625728673 -276785963
            360751541 893619338 -937416275 1057765809</internalNodes>
          <leafValues>
            -5.7204443216323853e-01 5.1534920930862427e-01</leafValues></_>
        <_>
          <internalNodes>
            0 -1 95 -161802043 2030276694 1511282910 805797978
            -641577972 -78036316 -626198020 1897460654</internalNodes>
          <leafValues>
            -6.1421751976013184e-01 4.5704856514930725e-01</leafValues></_>
        <_>
          <internalNodes>
            0 -1 99 -16889153 -138445799 -1073811457 -75817494
            2109367758 -65547 -1628775814 1510141930</internalNodes>
          <leafValues>
            -4.9717625975608826e-01 5.7414156198501587e-01</leafValues></_></weakClassifiers></_>
    <!-- stage 2 -->
    <_>
      <maxWeakCount>13</maxWeakCount>
      <stageThreshold>-7.2952222824096680e-01</stageThreshold>
      <weakClassifiers>
        <_>
          <internalNodes>
            0 -1 86 -1023456001 2088591231 -553746689 1383104383
            -75598516 2105442143 -50659602 -100467457</internalNodes>
          <leafValues>
            -3.7956205010414124e-01 5.5797100067138672e-01</leafValues></_>
        <_>
          <internalNodes>
            0 -1 35 -1498153005 -978911308 -1073811467 -112338956
            -1912938497 -1899565058 366215157 -605035051</internalNodes>
          <leafValues>
            -3.9884531497955322e-01 5.4783332347869873e-01</leafValues></_>
        <_>
          <internalNodes>
            0 -1 64 -783301974 1414766734 276832747 -181419641
            -863532306 -696131534 1401532139 1078322826</internalNodes>
          <leafValues>
            -5.1318889856338501e-01 4.6738955378532410e-01</leafValues></_>
        <_>
          <internalNodes>
            0 -1 19 -193769891 2040222169 -1240774529 812765563
            542918740 -1911958999 -301971830 -1206889693</internalNodes>
          <leafValues>
            -5.3697377443313599e-01 4.2925289273262024e-01</leafValues></_>
        <_>
          <internalNodes>
            0 -1 77 -1672438785 -237973223 -1241455333 808736517
            -219968886 -1935619579 -524945314 -2004088405</internalNodes>
          <leafValues>
            -5.6461125612258911e-01 3.9741030335426331e-01</leafValues></_>
        <_>
          <internalNodes>
            0 -1 78 -404546435 2092521039 -922660001 945570323
            -256499160 -232193024 2080529130 839052223</internalNodes>
          <leafValues>
            -5.9194505214691162e-01 3.9656025171279907e-01</leafValues></_>
        <_>
          <internalNodes>
            0 -1 71 950279070 143188709 1567115152 -1861183851 176745454
            -1936686456 -393381132 -656193018</internalNodes>
          <leafValues>
            -5.0565087795257568e-01 4.9529340863227844e-01</leafValues></_>
        <_>
          <internalNodes>
            0 -1 15 -36176997 1649387918 -905916160 -647064894
            -1441577733 140804224 1884459584 -752355421</internalNodes>
          <leafValues>
            -5.3947192430496216e-01 4.6655017137527466e-01</leafValues></_>
        <_>
          <internalNodes>
            0 -1 13 -70779077 -282267798 -2446 1887108966 -715129625
            -808517812 869651670 -356567345</internalNodes>
          <leafValues>
            -4.0719956159591675e-01 6.1983644962310791e-01</leafValues></_>
        <_>
          <internalNodes>
            0 -1 110 -1971126381 -1457880432 151793941 -2091908600
            -2062720605 -2112913272 536879309 -1922600560</internalNodes>
          <leafValues>
            -5.5791127681732178e-01 4.6785184741020203e-01</leafValues></_>
        <_>
          <internalNodes>
            0 -1 49 571128177 -1597896519 -452378243 292514068
            -1946043471 -645857140 168008633 1809551577</internalNodes>
          <leafValues>
            -6.0349422693252563e-01 4.5510923862457275e-01</leafValues></_>
        <_>
          <internalNodes>
            0 -1 106 -307256817 2003697576 788507188 1235926697
            -839098124 91223856 -71339087 -327156297</internalNodes>
          <leafValues>
            -4.3256756663322449e-01 6.2291127443313599e-01</leafValues></_>
        <_>
          <internalNodes>
            0 -1 3 1880145239 -679311075 -1874788161 -1080813503
            268438561 -624008064 -599160232 441453572</internalNodes>
          <leafValues>
            -6.5375041961669922e-01 4.2895892262458801e-01</leafValues></_></weakClassifiers></_>
    <!-- stage 3 -->
    <_>
      <maxWeakCount>13</maxWeakCount>
      <stageThreshold>-6.5881061553955078e-01</stageThreshold>
      <weakClassifiers>
        <_>
          <internalNodes>
            0 -1 115 -16780318 -206569561 -1158745376 -219218202
            -680534257 1699149813 -1048630 -168828961</internalNodes>
          <leafValues>
            -3.7227550148963928e-01 5.9544157981872559e-01</leafValues></_>
        <_>
          <internalNodes>
            0 -1 9 -618864642 -178945900 20988381 2008367569 -913794840
            -93826944 156273085 507075576</internalNodes>
          <leafValues>
            -5.0981479883193970e-01 4.7033745050430298e-01</leafValues></_>
        <_>
          <internalNodes>
            0 -1 29 -81543277 -859111446 -16908591 2146434756 1974990527
            -1393205259 364902391 -806367020</internalNodes>
          <leafValues>
            -4.1919583082199097e-01 5.3851062059402466e-01</leafValues></_>
        <_>
          <internalNodes>
            0 -1 50 -280508790 1117631362 -2147123200 -209403880
            -2129690616 302154378 -2126004218 1348467530</internalNodes>
          <leafValues>
            -6.2894427776336670e-01 3.8430976867675781e-01</leafValues></_>
        <_>
          <internalNodes>
            0 -1 56 -246815870 -139998293 1359069760 2146025957
            -1064778097 1111998474 1925272458 1945623183</internalNodes>
          <leafValues>
            -5.7935941219329834e-01 3.9812454581260681e-01</leafValues></_>
        <_>
          <internalNodes>
            0 -1 18 -67680163 1869941997 -335610115 1017151437
            1744776764 -229828 -38617094 -1115492737</internalNodes>
          <leafValues>
            -4.6592113375663757e-01 5.3113704919815063e-01</leafValues></_>
        <_>
          <internalNodes>
            0 -1 100 -1999419649 1536362670 -803921871 269507088
            -501067704 685178889 -350188806 -934123271</internalNodes>
          <leafValues>
            -5.0376796722412109e-01 4.9932488799095154e-01</leafValues></_>
        <_>
          <internalNodes>
            0 -1 53 -2084175675 -15720360 -503313161 1967522142
            -1996478056 -16479864 251665339 436218099</internalNodes>
          <leafValues>
            -5.6454902887344360e-01 4.6059957146644592e-01</leafValues></_>
        <_>
          <internalNodes>
            0 -1 88 -170987293 30198153 -1851150272 -777945076
            -649553255 25723650 -108961385 -915676417</internalNodes>
          <leafValues>
            -4.9873286485671997e-01 5.3080004453659058e-01</leafValues></_>
        <_>
          <internalNodes>
            0 -1 10 -774384421 -704314876 1614844691 -788115136
            1209189002 -897572696 17301640 1426263075</internalNodes>
          <leafValues>
            -5.4961204528808594e-01 5.0369119644165039e-01</leafValues></_>
        <_>
          <internalNodes>
            0 -1 52 -267212278 -1866454545 403226656 1897627803
            -299700091 269074955 -790535447 -236725537</internalNodes>
          <leafValues>
            -5.1109057664871216e-01 5.0108534097671509e-01</leafValues></_>
        <_>
          <internalNodes>
            0 -1 4 688053746 1132582084 268800125 -1316285922 2225330
            -1736081111 202062038 177291320</internalNodes>
          <leafValues>
            -6.4000117778778076e-01 4.2549794912338257e-01</leafValues></_>
        <_>
          <internalNodes>
            0 -1 84 -654914315 -16810113 -1627455881 -1334126948
            -562042340 -579403782 -1895907330 -612710167</internalNodes>
          <leafValues>
            -4.9645563960075378e-01 5.6612968444824219e-01</leafValues></_></weakClassifiers></_>
    <!-- stage 4 -->
    <_>
      <maxWeakCount>12</maxWeakCount>
      <stageThreshold>-1.1636730432510376e+00</stageThreshold>
      <weakClassifiers>
        <_>
          <internalNodes>
            0 -1 21 -1050701 -275845142 -4197648 -4292878 -1512396886
            -1880817804 1415051232 -950020725</internalNodes>
          <leafValues>
            -3.3677864074707031e-01 5.6881618499755859e-01</leafValues></_>
        <_>
          <internalNodes>
            0 -1 87 -92296481 -1765802371 -1493193474 819851259
            -857747893 -1671463076 -335548757 -135266305</internalNodes>
          <leafValues>
            -3.7939226627349854e-01 5.5631655454635620e-01</leafValues></_>
        <_>
          <internalNodes>
            0 -1 1 -1015026105 -456146746 8405154 1377091742 1883163475
            1934918149 1906439844 -221777009</internalNodes>
          <leafValues>
            -4.6521782875061035e-01 4.6794891357421875e-01</leafValues></_>
        <_>
          <internalNodes>
            0 -1 27 -743718475 1158318296 -1009545197 -875179928
            -1823217493 -120061239 461755889 1240453337</internalNodes>
          <leafValues>
            -5.0737386941909790e-01 4.1420248150825500e-01</leafValues></_>
        <_>
          <internalNodes>
            0 -1 107 -948440158 1296990218 -781500288 -605205860
            -603393541 33874440 1607532705 1281358005</internalNodes>
          <leafValues>
            -5.4662728309631348e-01 4.1791668534278870e-01</leafValues></_>
        <_>
          <internalNodes>
            0 -1 61 -10636666 -796622350 1111564452 1465045235
            -1719089022 1107558539 654413854 1999172107</internalNodes>
          <leafValues>
            -6.4140003919601440e-01 3.6290395259857178e-01</leafValues></_>
        <_>
          <internalNodes>
            0 -1 82 -229578561 -686306757 -1342062450 285003791
            348886984 508429067 1770037486 1367067147</internalNodes>
          <leafValues>
            -5.2160382270812988e-01 4.4926771521568298e-01</leafValues></_>
        <_>
          <internalNodes>
            0 -1 104 1523566798 -715130676 -792111458 1082269747
            1537804942 1073914120 1084408526 -260572533</internalNodes>
          <leafValues>
            -5.3450131416320801e-01 4.4964718818664551e-01</leafValues></_>
        <_>
          <internalNodes>
            0 -1 54 21876878 292132906 1073742226 1469047306 -2134335313
            -925757030 -2117660401 1124262786</internalNodes>
          <leafValues>
            -5.9558802843093872e-01 4.1429424285888672e-01</leafValues></_>
        <_>
          <internalNodes>
            0 -1 31 -222113576 -805207907 1090734023 -145653735
            -1938124630 -1712403895 1275251167 50583689</internalNodes>
          <leafValues>
            -5.4872989654541016e-01 4.4074708223342896e-01</leafValues></_>
        <_>
          <internalNodes>
            0 -1 23 -239007619 501022853 277516562 1560850699 487982256
            328597704 285903754 -254019361</internalNodes>
          <leafValues>
            -4.9490466713905334e-01 5.5222958326339722e-01</leafValues></_>
        <_>
          <internalNodes>
            0 -1 36 1927626929 2114588695 277107192 940642525
            -1975448428 -76676913 -1718945026 187869195</internalNodes>
          <leafValues>
            -5.3063404560089111e-01 4.7626194357872009e-01</leafValues></_></weakClassifiers></_>
    <!-- stage 5 -->
    <_>
      <maxWeakCount>12</maxWeakCount>
      <stageThreshold>-1.0139768123626709e+00</stageThreshold>
      <weakClassifiers>
        <_>
          <internalNodes>
            0 -1 8 1736700851 -2030006254 102250518 1699199184
            1260391411 1304440930 1158180917 1131901124</internalNodes>
          <leafValues>
            -6.4686995744705200e-01 3.8237160444259644e-01</leafValues></_>
        <_>
          <internalNodes>
            0 -1 11 -142608493 -1894863194 -124938 2045113090 -44241665
            -272039950 72644599 -437929309</internalNodes>
          <leafValues>
            -4.3625828623771667e-01 4.5605033636093140e-01</leafValues></_>
        <_>
          <internalNodes>
            0 -1 98 -1423984333 -1409368334 -550927 -1311266060
            128970495 532611055 2013246583 -537923883</internalNodes>
          <leafValues>
            -3.8975504040718079e-01 5.1454478502273560e-01</leafValues></_>
        <_>
          <internalNodes>
            0 -1 93 -698623746 -234421999 2013627102 1886246035
            -1474239936 -1811333111 2046925038 -1235244177</internalNodes>
          <leafValues>
            -4.0892371535301208e-01 5.2112239599227905e-01</leafValues></_>
        <_>
          <internalNodes>
            0 -1 89 1609209259 -2136959616 692178963 -1175420220
            857014731 -2117959248 1438871957 -1919814526</internalNodes>
          <leafValues>
            -5.2595108747482300e-01 4.0568792819976807e-01</leafValues></_>
        <_>
          <internalNodes>
            0 -1 44 846073853 -1874917903 402827549 -1110285360
            -1736176547 732629709 -328595220 -1142927240</internalNodes>
          <leafValues>
            -5.4416751861572266e-01 3.9651191234588623e-01</leafValues></_>
        <_>
          <internalNodes>
            0 -1 117 -151012435 1261436906 -287526240 -785514774
            -411042081 1121941471 -134236438 -146014289</internalNodes>
          <leafValues>
            -3.8032832741737366e-01 5.9229224920272827e-01</leafValues></_>
        <_>
          <internalNodes>
            0 -1 33 -797399474 2076902233 -1945478665 268452631
            2013332005 -1157352959 -400185125 1467119939</internalNodes>
          <leafValues>
            -6.2852740287780762e-01 3.8111349940299988e-01</leafValues></_>
        <_>
          <internalNodes>
            0 -1 39 -1599422853 -909451056 134595459 1541261368
            454593117 -1609940851 -2121417798 532662424</internalNodes>
          <leafValues>
            -5.3828650712966919e-01 4.3423950672149658e-01</leafValues></_>
        <_>
          <internalNodes>
            0 -1 70 -665329270 1091277258 1262146 1082594152 -1266146602
            67635467 1803809979 1436283635</internalNodes>
          <leafValues>
            -6.1927068233489990e-01 3.9353343844413757e-01</leafValues></_>
        <_>
          <internalNodes>
            0 -1 34 1805120437 -1926853936 -1039840686 -274087808
            704887463 -1968144248 1451842292 -677645116</internalNodes>
          <leafValues>
            -5.1817345619201660e-01 5.0250351428985596e-01</leafValues></_>
        <_>
          <internalNodes>
            0 -1 58 1397449195 1467728883 2146533371 -170937887
            -2085683201 -557844498 446693359 -2083937662</internalNodes>
          <leafValues>
            -3.8533407449722290e-01 6.2905281782150269e-01</leafValues></_></weakClassifiers></_>
    <!-- stage 6 -->
    <_>
      <maxWeakCount>14</maxWeakCount>
      <stageThreshold>-3.3537551760673523e-01</stageThreshold>
      <weakClassifiers>
        <_>
          <internalNodes>
            0 -1 73 1891201055 1560367114 1351059662 37020679 -526249460
            -395214272 1820986106 974308315</internalNodes>
          <leafValues>
            -4.7368422150611877e-01 4.1226819157600403e-01</leafValues></_>
        <_>
          <internalNodes>
            0 -1 16 -651429284 -133069751 1209016330 810286037 -11972096
            1845559824 -586620118 -28845334</internalNodes>
          <leafValues>
            -4.2286875844001770e-01 4.4535702466964722e-01</leafValues></_>
        <_>
          <internalNodes>
            0 -1 81 1962308703 2003791677 -1895845990 930618943
            1606343692 -815956100 1048457210 -97321125</internalNodes>
          <leafValues>
            -4.3082842230796814e-01 4.5365402102470398e-01</leafValues></_>
        <_>
          <internalNodes>
            0 -1 90 -1380748397 -1410944540 1165455735 795995853
            -1879771649 -1946715145 89617847 -878754582</internalNodes>
          <leafValues>
            -3.8727140426635742e-01 5.2410894632339478e-01</leafValues></_>
        <_>
          <internalNodes>
            0 -1 45 1910503626 -1043414394 1360596994 -1159887999
            -1589228334 17335052 2070225600 1361441766</internalNodes>
          <leafValues>
            -5.8080899715423584e-01 3.2160687446594238e-01</leafValues></_>
        <_>
          <internalNodes>
            0 -1 24 -671805863 -1657512065 -1233158401 1479999103
            -143186420 -585814155 -8864040 -26476742</internalNodes>
          <leafValues>
            -4.2389249801635742e-01 5.0984185934066772e-01</leafValues></_>
        <_>
          <internalNodes>
            0 -1 28 1103960051 126648850 -1844276973 2000757456 72745130
            -2009575296 1144562343 1304938516</internalNodes>
          <leafValues>
            -5.6936913728713989e-01 4.0773269534111023e-01</leafValues></_>
        <_>
          <internalNodes>
            0 -1 69 32592125 -820049536 -1861934603 -116960971 298383827
            -262184495 1229120255 984249130</internalNodes>
          <leafValues>
            -5.2205979824066162e-01 4.0749478340148926e-01</leafValues></_>
        <_>
          <internalNodes>
            0 -1 60 -621544478 -1157645330 -394366398 -240914751
            -512784693 1724755783 1408606659 -144711780</internalNodes>
          <leafValues>
            -4.4998022913932800e-01 5.0266444683074951e-01</leafValues></_>
        <_>
          <internalNodes>
            0 -1 79 -954925144 1614909568 1090551065 -1723743542
            2072221390 276958235 -1874771832 895333173</internalNodes>
          <leafValues>
            -5.6940734386444092e-01 4.1579428315162659e-01</leafValues></_>
        <_>
          <internalNodes>
            0 -1 119 -923801041 1621196887 1678098530 -1819300914
            -631122933 1098979329 -1317009834 -253261163</internalNodes>
          <leafValues>
            -5.5101954936981201e-01 4.2152285575866699e-01</leafValues></_>
        <_>
          <internalNodes>
            0 -1 41 747199147 -576401324 1294062363 2108310672
            -1165760359 -1693785832 34117902 1574898621</internalNodes>
          <leafValues>
            -4.6000498533248901e-01 4.9882772564888000e-01</leafValues></_>
        <_>
          <internalNodes>
            0 -1 66 257145630 -628063918 135192 568395863 -485966150
            162066500 -1438485602 -70455618</internalNodes>
          <leafValues>
            -5.0595295429229736e-01 4.8882198333740234e-01</leafValues></_>
        <_>
          <internalNodes>
            0 -1 57 -931209461 2050916351 -1140904037 -76898312
            -1635279015 -84279302 -453517522 -1866314469</internalNodes>
          <leafValues>
            -4.4350028038024902e-01 5.2313745021820068e-01</leafValues></_></weakClassifiers></_>
    <!-- stage 7 -->
    <_>
      <maxWeakCount>13</maxWeakCount>
      <stageThreshold>-5.4126209020614624e-01</stageThreshold>
      <weakClassifiers>
        <_>
          <internalNodes>
            0 -1 85 -662811393 1509685247 -352321537 537521150
            -121680372 -27566210 -276927618 -497887617</internalNodes>
          <leafValues>
            -3.9549180865287781e-01 4.7875815629959106e-01</leafValues></_>
        <_>
          <internalNodes>
            0 -1 102 -18884009 2045640460 -220275619 1624208725
            2032138766 -1256917308 -92291078 -665321610</internalNodes>
          <leafValues>
            -3.6172699928283691e-01 5.1835924386978149e-01</leafValues></_>
        <_>
          <internalNodes>
            0 -1 111 -1108541469 -846290705 2004596259 -671110412
            937361383 -845218321 -176720684 -943213315</internalNodes>
          <leafValues>
            -3.5707655549049377e-01 5.3087228536605835e-01</leafValues></_>
        <_>
          <internalNodes>
            0 -1 2 -204746839 1183400193 -935186074 -996222768 864649479
            1634184728 -787766208 1984392271</internalNodes>
          <leafValues>
            -6.2734293937683105e-01 3.1548544764518738e-01</leafValues></_>
        <_>
          <internalNodes>
            0 -1 40 -1463801575 -1014008488 -1769664165 1429562496
            173935070 -554977090 219992535 1556304341</internalNodes>
          <leafValues>
            -5.0046998262405396e-01 4.1022518277168274e-01</leafValues></_>
        <_>
          <internalNodes>
            0 -1 62 747378133 -722468451 353392717 -786169848 -372656710
            -1160114046 -91678593 -1147660368</internalNodes>
          <leafValues>
            -4.9876892566680908e-01 4.2009180784225464e-01</leafValues></_>
        <_>
          <internalNodes>
            0 -1 75 -1962307165 -1998941853 1259110609 1140919133
            -1605844529 -1448050423 74018835 -845338590</internalNodes>
          <leafValues>
            -5.0787526369094849e-01 4.5339867472648621e-01</leafValues></_>
        <_>
          <internalNodes>
            0 -1 118 -275781721 1128628737 1276223506 -1004548600
            -184376549 1080033289 1947300623 1279524568</internalNodes>
          <leafValues>
            -5.3377383947372437e-01 4.1910532116889954e-01</leafValues></_>
        <_>
          <internalNodes>
            0 -1 12 -885530629 -553930757 -8979601 83209212 272630994
            -1493840136 400004943 -824237742</internalNodes>
          <leafValues>
            -4.0263262391090393e-01 5.5009984970092773e-01</leafValues></_>
        <_>
          <internalNodes>
            0 -1 120 -1759318085 -1175536173 -1082214544 1505230068
            364756790 -1912930353 938450785 -369139771</internalNodes>
          <leafValues>
            -4.3720385432243347e-01 5.0642424821853638e-01</leafValues></_>
        <_>
          <internalNodes>
            0 -1 92 -16789793 -196125667 -222385153 586444511 2079612748
            2053078854 1341980654 -27806099</internalNodes>
          <leafValues>
            -4.5459756255149841e-01 5.1362144947052002e-01</leafValues></_>
        <_>
          <internalNodes>
            0 -1 65 -1215223069 1028804640 -1276370450 -1819376506
            210170615 538214544 1166978185 -1008035046</internalNodes>
          <leafValues>
            -4.6069931983947754e-01 4.8532265424728394e-01</leafValues></_>
        <_>
          <internalNodes>
            0 -1 32 -55358891 -608354307 -385929283 1881178099
            -344318116 -738427019 -21316866 -126812177</internalNodes>
          <leafValues>
            -4.6030899882316589e-01 4.9316799640655518e-01</leafValues></_></weakClassifiers></_>
    <!-- stage 8 -->
    <_>
      <maxWeakCount>12</maxWeakCount>
      <stageThreshold>-5.5110257863998413e-01</stageThreshold>
      <weakClassifiers>
        <_>
          <internalNodes>
            0 -1 38 -1508723888 1153728844 88150421 -1450866568
            -1425872242 -1734365031 483233980 529471916</internalNodes>
          <leafValues>
            -5.1978170871734619e-01 3.9604634046554565e-01</leafValues></_>
        <_>
          <internalNodes>
            0 -1 63 1582389334 2033293587 677711962 271782407
            -2138564516 1376616483 948111998 716960490</internalNodes>
          <leafValues>
            -5.8005762100219727e-01 3.1868207454681396e-01</leafValues></_>
        <_>
          <internalNodes>
            0 -1 17 -537972 2143776486 -520426770 -1325662473 1985322060
            -682119339 -136904754 -13370305</internalNodes>
          <leafValues>
            -3.9290702342987061e-01 4.8318552970886230e-01</leafValues></_>
        <_>
          <internalNodes>
            0 -1 5 -247573540 1393562448 -2137908979 494993428
            -377352780 -1635510207 -1420033400 1072443931</internalNodes>
          <leafValues>
            -5.2653849124908447e-01 3.8518118858337402e-01</leafValues></_>
        <_>
          <internalNodes>
            0 -1 96 -616068185 897958595 470025612 357835910 1879804139
            268468641 -2055139701 297960394</internalNodes>
          <leafValues>
            -5.3625094890594482e-01 3.6866056919097900e-01</leafValues></_>
        <_>
          <internalNodes>
            0 -1 83 -1383399887 -1160967656 614981 -49951633 -1129858625
            -720727895 694223297 -637693935</internalNodes>
          <leafValues>
            -4.6096128225326538e-01 4.8293828964233398e-01</leafValues></_>
        <_>
          <internalNodes>
            0 -1 74 1421931082 1860665546 -1878776608 -171732468
            1635848966 1113727522 -1826364990 1944568298</internalNodes>
          <leafValues>
            -5.7312315702438354e-01 3.9809840917587280e-01</leafValues></_>
        <_>
          <internalNodes>
            0 -1 112 225790643 -1954889468 17500177 -706625508 54639098
            749621266 -1383634538 -808035760</internalNodes>
          <leafValues>
            -5.4792308807373047e-01 3.8776403665542603e-01</leafValues></_>
        <_>
          <internalNodes>
            0 -1 47 -69210234 1936664262 2108433056 -504369173
            -134242809 1097498199 1970273927 -53478145</internalNodes>
          <leafValues>
            -3.7936541438102722e-01 5.9117609262466431e-01</leafValues></_>
        <_>
          <internalNodes>
            0 -1 46 363174152 362369520 587269416 -2038431679 438971034
            -796875904 -645757541 -173939840</internalNodes>
          <leafValues>
            -5.1813197135925293e-01 4.3852278590202332e-01</leafValues></_>
        <_>
          <internalNodes>
            0 -1 114 2003804223 -252772434 -93409626 1114432482
            1206751119 -1042292038 -285264753 -646972433</internalNodes>
          <leafValues>
            -4.3705704808235168e-01 5.1724183559417725e-01</leafValues></_>
        <_>
          <internalNodes>
            0 -1 68 -1610477512 2084575659 -1870378885 -364379937
            -805303879 1359020043 -1433220534 413799471</internalNodes>
          <leafValues>
            -6.2047344446182251e-01 4.0413373708724976e-01</leafValues></_></weakClassifiers></_>
    <!-- stage 9 -->
    <_>
      <maxWeakCount>12</maxWeakCount>
      <stageThreshold>-3.9106595516204834e-01</stageThreshold>
      <weakClassifiers>
        <_>
          <internalNodes>
            0 -1 37 652806005 -579146025 -25296897 -1107542539
            -1494380581 -4329479 -1680556292 -1098643136</internalNodes>
          <leafValues>
            -2.9688814282417297e-01 5.4698318243026733e-01</leafValues></_>
        <_>
          <internalNodes>
            0 -1 30 -1908432973 1280065734 1350621873 1927936216
            -1944259897 -2121529970 1359574983 1168348385</internalNodes>
          <leafValues>
            -5.4570156335830688e-01 3.4743037819862366e-01</leafValues></_>
        <_>
          <internalNodes>
            0 -1 55 -144182290 -550590934 -135798237 -137124990 87031035
            1122466764 1465726955 -942673505</internalNodes>
          <leafValues>
            -3.8539186120033264e-01 5.0100558996200562e-01</leafValues></_>
        <_>
          <internalNodes>
            0 -1 26 -222844913 2131822089 -2080262945 -1877978556
            -1471659940 -32806144 -1863278917 -295312895</internalNodes>
          <leafValues>
            -4.4615367054939270e-01 4.3316251039505005e-01</leafValues></_>
        <_>
          <internalNodes>
            0 -1 43 693360477 818083006 1896548503 2003428380
            -1380671255 -2115248062 411491261 -1746960304</internalNodes>
          <leafValues>
            -4.4979405403137207e-01 4.4543763995170593e-01</leafValues></_>
        <_>
          <internalNodes>
            0 -1 80 -215520596 2146430888 2146973216 -1141117266
            -248916499 662478303 -403703873 -705305245</internalNodes>
          <leafValues>
            -3.8723856210708618e-01 5.1172763109207153e-01</leafValues></_>
        <_>
          <internalNodes>
            0 -1 94 -244996138 -1825104619 -122176773 -738109699 -252708
            -60895736 -521082628 -82845316</internalNodes>
          <leafValues>
            -3.9130041003227234e-01 5.4418128728866577e-01</leafValues></_>
        <_>
          <internalNodes>
            0 -1 48 445598708 -91161096 159538311 699933536 268583576
            -1970796896 10491950 29252093</internalNodes>
          <leafValues>
            -5.8569574356079102e-01 3.9813008904457092e-01</leafValues></_>
        <_>
          <internalNodes>
            0 -1 0 -834357729 -2140560058 126849246 -1105792254
            1744917569 1361815558 -242587279 -266476930</internalNodes>
          <leafValues>
            -4.9566543102264404e-01 4.3470638990402222e-01</leafValues></_>
        <_>
          <internalNodes>
            0 -1 67 213143008 -596989587 1208391935 495346828 -377379909
            -606552037 -1436522840 691800161</internalNodes>
          <leafValues>
            -6.5372240543365479e-01 3.4723579883575439e-01</leafValues></_>
        <_>
          <internalNodes>
            0 -1 113 1151074527 -157220771 276943140 -1304813104
            -1802956469 -56651109 -317435728 -1148317900</internalNodes>
          <leafValues>
            -4.8763221502304077e-01 5.1097214221954346e-01</leafValues></_>
        <_>
          <internalNodes>
            0 -1 108 -532094680 233024332 1091929090 -778366104
            -670482283 243796104 838955745 1162791556</internalNodes>
          <leafValues>
            -6.9746500253677368e-01 3.1052044034004211e-01</leafValues></_></weakClassifiers></_></stages>
  <features>
    <_>
      <rect>
        0 6 1 2</rect></_>
    <_>
      <rect>
        1 10 1 1</rect></_>
    <_>
      <rect>
        1 11 1 1</rect></_>
    <_>
      <rect>
        1 11 3 4</rect></_>
    <_>
      <rect>
        2 0 4 2</rect></_>
    <_>
      <rect>
        2 1 5 4</rect></_>
    <_>
      <rect>
        2 1 7 4</rect></_>
    <_>
      <rect>
        2 2 2 3</rect></_>
    <_>
      <rect>
        2 2 3 2</rect></_>
    <_>
      <rect>
        2 2 6 3</rect></_>
    <_>
      <rect>
        2 3 2 6</rect></_>
    <_>
      <rect>
        2 4 2 2</rect></_>
    <_>
      <rect>
        2 5 3 5</rect></_>
    <_>
      <rect>
        2 7 1 1</rect></_>
    <_>
      <rect>
        2 8 1 1</rect></_>
    <_>
      <rect>
        2 9 1 1</rect></_>
    <_>
      <rect>
        2 12 1 2</rect></_>
    <_>
      <rect>
        2 14 1 1</rect></_>
    <_>
      <rect>
        2 15 1 2</rect></_>
    <_>
      <rect>
        2 16 2 2</rect></_>
    <_>
      <rect>
        3 5 1 1</rect></_>
    <_>
      <rect>
        3 6 1 1</rect></_>
    <_>
      <rect>
        3 12 6 4</rect></_>
    <_>
      <rect>
        3 13 1 3</rect></_>
    <_>
      <rect>
        3 17 1 1</rect></_>
    <_>
      <rect>
        3 18 1 1</rect></_>
    <_>
      <rect>
        3 18 2 1</rect></_>
    <_>
      <rect>
        4 2 1 2</rect></_>
    <_>
      <rect>
        4 2 2 2</rect></_>
    <_>
      <rect>
        4 3 1 1</rect></_>
    <_>
      <rect>
        4 4 1 1</rect></_>
    <_>
      <rect>
        4 12 6 4</rect></_>
    <_>
      <rect>
        4 18 1 1</rect></_>
    <_>
      <rect>
        4 19 2 1</rect></_>
    <_>
      <rect>
        5 2 1 1</rect></_>
    <_>
      <rect>
        5 3 1 1</rect></_>
    <_>
      <rect>
        5 18 1 1</rect></_>
    <_>
      <rect>
        6 12 3 2</rect></_>
    <_>
      <rect>
        7 2 1 1</rect></_>
    <_>
      <rect>
        7 3 1 1</rect></_>
    <_>
      <rect>
        7 3 2 1</rect></_>
    <_>
      <rect>
        7 4 1 1</rect></_>
    <_>
      <rect>
        8 0 3 2</rect></_>
    <_>
      <rect>
        8 2 1 1</rect></_>
    <_>
      <rect>
        8 4 3 3</rect></_>
    <_>
      <rect>
        8 9 1 2</rect></_>
    <_>
      <rect>
        8 9 2 2</rect></_>
    <_>
      <rect>
        8 11 1 1</rect></_>
    <_>
      <rect>
        9 1 4 4</rect></_>
    <_>
      <rect>
        9 2 1 1</rect></_>
    <_>
      <rect>
        9 9 1 2</rect></_>
    <_>
      <rect>
        9 10 1 1</rect></_>
    <_>
      <rect>
        9 11 1 1</rect></_>
    <_>
      <rect>
        10 3 2 1</rect></_>
    <_>
      <rect>
        10 7 1 2</rect></_>
    <_>
      <rect>
        10 9 1 1</rect></_>
    <_>
      <rect>
        10 10 1 1</rect></_>
    <_>
      <rect>
        11 0 4 1</rect></_>
    <_>
      <rect>
        11 7 1 2</rect></_>
    <_>
      <rect>
        11 8 1 2</rect></_>
    <_>
      <rect>
        11 10 1 1</rect></_>
    <_>
      <rect>
        11 11 1 1</rect></_>
    <_>
      <rect>
        12 1 1 1</rect></_>
    <_>
      <rect>
        12 2 3 1</rect></_>
    <_>
      <rect>
        12 8 1 2</rect></_>
    <_>
      <rect>
        12 9 2 2</rect></_>
    <_>
      <rect>
        12 11 1 2</rect></_>
    <_>
      <rect>
        12 20 1 1</rect></_>
    <_>
      <rect>
        13 1 1 1</rect></_>
    <_>
      <rect>
        13 3 1 1</rect></_>
    <_>
      <rect>
        13 11 1 1</rect></_>
    <_>
      <rect>
        13 20 3 1</rect></_>
    <_>
      <rect>
        14 1 3 7</rect></_>
    <_>
      <rect>
        14 3 2 1</rect></_>
    <_>
      <rect>
        14 10 1 1</rect></_>
    <_>
      <rect>
        14 16 3 2</rect></_>
    <_>
      <rect>
        15 2 1 1</rect></_>
    <_>
      <rect>
        15 2 3 4</rect></_>
    <_>
      <rect>
        15 3 1 1</rect></_>
    <_>
      <rect>
        15 4 2 4</rect></_>
    <_>
      <rect>
        15 11 1 1</rect></_>
    <_>
      <rect>
        16 2 1 1</rect></_>
    <_>
      <rect>
        16 3 2 1</rect></_>
    <_>
      <rect>
        16 18 1 1</rect></_>
    <_>
      <rect>
        17 2 1 1</rect></_>
    <_>
      <rect>
        17 2 2 2</rect></_>
    <_>
      <rect>
        17 3 1 1</rect></_>
    <_>
      <rect>
        17 5 2 1</rect></_>
    <_>
      <rect>
        17 13 2 2</rect></_>
    <_>
      <rect>
        17 15 2 2</rect></_>
    <_>
      <rect>
        17 18 1 1</rect></_>
    <_>
      <rect>
        18 3 1 1</rect></_>
    <_>
      <rect>
        18 5 1 1</rect></_>
    <_>
      <rect>
        18 6 1 1</rect></_>
    <_>
      <rect>
        18 6 1 2</rect></_>
    <_>
      <rect>
        18 7 1 1</rect></_>
    <_>
      <rect>
        18 7 2 3</rect></_>
    <_>
      <rect>
        18 17 1 1</rect></_>
    <_>
      <rect>
        18 18 1 1</rect></_>
    <_>
      <rect>
        19 3 1 2</rect></_>
    <_>
      <rect>
        19 4 1 1</rect></_>
    <_>
      <rect>
        19 6 1 1</rect></_>
    <_>
      <rect>
        19 6 1 2</rect></_>
    <_>
      <rect>
        19 7 1 1</rect></_>
    <_>
      <rect>
        19 7 1 2</rect></_>
    <_>
      <rect>
        19 9 1 1</rect></_>
    <_>
      <rect>
        19 9 1 2</rect></_>
    <_>
      <rect>
        19 12 1 2</rect></_>
    <_>
      <rect>
        19 13 1 1</rect></_>
    <_>
      <rect>
        19 13 1 3</rect></_>
    <_>
      <rect>
        19 14 1 3</rect></_>
    <_>
      <rect>
        19 15 1 1</rect></_>
    <_>
      <rect>
        19 17 1 1</rect></_>
    <_>
      <rect>
        20 4 1 1</rect></_>
    <_>
      <rect>
        20 8 1 2</rect></_>
    <_>
      <rect>
        20 9 1 1</rect></_>
    <_>
      <rect>
        20 9 1 2</rect></_>
    <_>
      <rect>
        20 10 1 1</rect></_>
    <_>
      <rect>
        20 10 1 2</rect></_>
    <_>
      <rect>
        20 11 1 1</rect></_>
    <_>
      <rect>
        20 15 1 2</rect></_></features></cascade>
</opencv_storage>
